fold,rmse,mae,r2,directional_accuracy,information_coefficient,spearman_ic,sign_hit_rate,pred_mean,pred_std,actual_mean,actual_std,n_preds,r2_out_of_sample,preds,y_true,xgb_ic,lstm_ic
1,0.3110342390906802,0.2555033399330337,0.044567882401055,0.6850951802349129,0.5230020905821512,0.4838260052888695,0.6850951802349129,0.2523078620433807,0.2170752435922622,0.1216108642467791,0.3182059391291982,4938,0.2566414513028768,"[-0.23360962294093668, -0.24574121486555361, -0.283527225147227, -0.2883269744410306, -0.2884757507767647, -0.21411919747376068, -0.24154655608187325, -0.24232143056493236, -0.3142513408899361, -0.2754711266686814, -0.23919257240360242, -0.30425246925265687, -0.24144809284406055, -0.29385905758871234, -0.29866965629661846, -0.2930205607901667, -0.27135816617439784, -0.23671783584399925, -0.2747214875990014, -0.2728854629923453, -0.2655844459594794, -0.2516556742941949, -0.25673332972075286, -0.2365303949917279, -0.19662319781517498, -0.1895049917454762, -0.1989659253511144, -0.18032013225903712, -0.11213341672508849, -0.10684959300745349, -0.10716284869981192, -0.1123903416361369, -0.11012557236076856, -0.09733709458265583, -0.09428071470985847, -0.09097197728665948, -0.08748923429748717, -0.0838509726782927, -0.08090078394053249, -0.07876872367862303, -0.07847767949607651, -0.07902707860854061, -0.04873063680037471, -0.029692345295474362, -0.042175780285531796, -0.03965807545658706, -0.03959871084959411, -0.02278189382850908, -0.016215815181618493, -0.023803397500128262, -0.018564482195548626, -0.010159754637359436, -0.027220959143820597, -0.02473408174502957, -0.03739391752492807, -0.04777393205644845, -0.026720999094810932, -0.06910951159193218, -0.10491591329426984, -0.10472906474514455, -0.10388823539941262, -0.10192331053039598, -0.1272110851439975, -0.1321031633834048, -0.13718529819905828, -0.14622033795037995, -0.12115234131823187, -0.1288098592933088, -0.10158136574773262, -0.10244330275371337, -0.10450435849945398, -0.09987969615743197, -0.0959260602090385, -0.1022809458720692, -0.14228054564828357, -0.1409945774817966, -0.13318115808639383, -0.13306689794754742, -0.14528183406821804, -0.19704135038433707, -0.21560745262475417, -0.20177162061618814, -0.18607495551034034, -0.18552790417979373, -0.1868163468899914, -0.1900150728056884, -0.18959491912485937, -0.1879688634248285, -0.13754189083893442, -0.1437656331478165, -0.1528740603806682, -0.15167967382220426, -0.1494869089038812, -0.11796334888955584, -0.11718205835225487, -0.11658337524347862, -0.11521908674826274, -0.11009036478327215, -0.1079715661792406, -0.10539205028305682, -0.0921321371520308, -0.08908009737076059, -0.09644111198114229, -0.08402107122504604, -0.0825265655734172, -0.08112109083039556, -0.07858269382270928, -0.07800546466629614, -0.07594320346227053, -0.07326231500797782, -0.03984914704222192, -0.031706363300917986, -0.0252433782880407, -0.02503020923230323, -0.0214787204002813, -0.022872404767733598, -0.026301477589590394, -0.023582115658095523, -0.020161662768410457, -0.0167704192375282, -0.013545623378215715, -0.011404727448388413, -0.014373886295712318, 0.32506463910386435, 0.3244312490691801, 0.32937720678536264, 0.3303673670749072, 0.33134543473340605, 0.31953094442106106, 0.3495263609574254, 0.3095179614345658, 0.3484525030536395, 0.31944888733826005, 0.3075974279026283, 0.31604366681575113, 0.32212509608753376, 0.3215492932806641, 0.3459068983684478, 0.31673207532981057, 0.3045470467336714, 0.3447890669644043, 0.34399983791931255, 0.31784970689769904, 0.33055164449552343, 0.2965399742494585, 0.29522909824516574, 0.2870706667177237, 0.2929915917629913, 0.2843073153380579, 0.2836871074642539, 0.28199940245792116, 0.30129107325420984, 0.3073371182111018, 0.3070561711579851, 0.2971820979146722, 0.30710827169336274, 0.3019271546633111, 0.3024282050009288, 0.29681754288448736, 0.29921912988845856, 0.29946228746955744, 0.2993577275347513, 0.2990372293133673, 0.2986441100576998, 0.29871747056942133, 0.2928727203451652, 0.29334117930216785, 0.296785879468191, 0.2974233090197873, 0.29468898568528046, 0.3050114758720912, 0.31733565964441635, 0.3177105529561696, 0.3220657963482758, 0.0161162445546129, 0.014097316405755608, 0.01427997820762135, 0.014585458512212088, 0.01484779900802738, 0.015076471531075109, 0.015314148279397893, 0.020798992055010082, 0.015721806966457558, 0.015508337229562602, 0.01478472456431601, 0.014653684812426862, 0.014506365682232458, 0.014306989515333213, 0.014174644803259265, 0.013408183093371079, 0.013244008227456514, 0.013600342700602133, 0.013422563624761144, 0.012633971965072585, 0.012328720028514178, 0.011928706233203731, 0.002161458716145398, 0.0014615650703705962, 0.009841052678915788, 0.008908789122903021, 0.007971664590201905, -0.0020389688759876734, -0.002638304464856328, -0.009264000655423862, -0.08826519243198408, -0.07297891824708869, -0.07624467543843803, -0.049185230676641434, 0.004727662218764278, 0.009744713209950961, 0.02705875896867055, 0.02404163540555898, 0.02604271696879437, 0.023605315042955877, 0.022517583010241038, 0.01572825625415683, 0.012518387250069762, 0.0007598764035743333, 0.005082014347024849, 0.05078956404594181, 0.04981267028843147, 0.05265581713594537, 0.058655229846843335, 0.05952467928029468, 0.06051139491972611, 0.06181279297101002, 0.06338015720045595, 0.06612351914777292, 0.07350089719739292, 0.07509596497514873, 0.07204735328261488, 0.0734067629311135, 0.07204716783682621, 0.08019140418914887, 0.08556019614607882, 0.08417864023577754, 0.07671749007122676, 0.07500202475497571, 0.08024934192362232, 0.15431882805859032, 0.184474721521882, 0.16055442714989118, 0.15670575437911055, 0.14996223854062374, 0.1153863639185109, 0.10655059968519907, 0.11388980295459103, 0.15307648815830294, 0.14630413981778964, 0.14636972018407612, 0.1472626962825256, 0.14800055406589657, 0.15862019886077539, 0.15967920395606866, 0.161102074769887, 0.16231306048108837, 0.16507273727465097, 0.16748990958760027, 0.17103276799263425, 0.174186844001413, 0.17449687661974625, 0.17057998351929762, 0.1729349534625708, 0.1724649829266875, 0.1946155083072376, 0.16965834941882416, 0.2747460058921237, 0.2870927969125594, 0.3408818903000306, 0.33826899597874, 0.3427625121374575, 0.33421042979269516, 0.3332611157764346, 0.332452616139614, 0.3324981157513903, 0.333412085736646, 0.3229342061217407, 0.32913935940442385, 0.27943885298255416, 0.24679421839378846, 0.2623242509351413, 0.25478558409661384, 0.24280340079496904, 0.2356461114967975, 0.22387743064716656, 0.21680109966966318, 0.2393157825213063, 0.2400247411719307, 0.23469948139918295, 0.23024506505641723, 0.2219130856859361, 0.21610748638117006, 0.1834515695425133, 0.15849364468801608, 0.15786248915871012, 0.17314079860437423, 0.1754649131654306, 0.16493386373564842, 0.14077799549113723, 0.15874287162697565, 0.15596096837971213, 0.11806854261266403, 0.10920708853653184, 0.10720488812501111, 0.10262783603967532, 0.1012824873371678, 0.09997061086340009, 0.09909188329896826, 0.09695748477937272, 0.09482363040123082, 0.09518462799622071, 0.10167543281294157, 0.13438105508284795, 0.11521489478201444, 0.12997315661844225, 0.1279146254256115, 0.1269722049294938, 0.12458147832451646, 0.12250151316065058, 0.1324500793363008, 0.14558417755874206, 0.13189251160053694, 0.11192328840939231, 0.10957683950112443, 0.11989784131351322, 0.11830451755189131, 0.11106320768075878, 0.10969893013313134, 0.09815369904951163, 0.09941046270480844, 0.10931878444311391, 0.10568754213510126, 0.1019703583580949, 0.12577928252817272, 0.11470901067987835, 0.11620581088649876, 0.10938763070290458, 0.11153653038853192, 0.11124039210445819, 0.08902545112570068, 0.11389551927104705, 0.09840216308743199, 0.10374486070251515, 0.10232079098933791, 0.1034298766503895, 0.10366505222502478, 0.1035477363044123, 0.09329134493291491, 0.09608601432817535, 0.09252048812717162, 0.094376770782238, 0.09222945879816882, 0.06932384391417637, 0.06394024902607517, 0.0619393100760664, 0.05422435898466324, 0.05067245555250857, 0.04563722028275102, 0.040299205207823374, 0.04016766522119672, 0.04008704043111319, 0.04000617639832915, 0.03993125459562258, 0.06430935226202089, 0.07026602912052987, 0.04493320147687538, 0.04512223583431016, 0.04569529356355506, 0.04696767790363321, 0.05107599511971392, 0.06762844236935253, 0.06714380050771987, 0.013953874025827734, 0.021338910105335646, 0.035011061578611224, 0.048691300549515676, 0.06730797661617438, 0.04017722405455029, 0.03191859704825867, 0.037922179674745454, 0.05258589477774142, 0.05119848850758521, 0.05223257409176993, 0.07700436992269488, 0.08801413655820697, 0.08834303002344648, 0.09280599666948619, 0.0938890072878086, 0.09253705243600585, 0.09196488933269378, 0.07471943711970722, 0.07819765204807048, 0.0798830190013928, 0.0788376480213635, 0.07280861235390981, 0.060511782727723534, 0.07234850262471743, 0.059458081744229396, 0.055877608111884663, 0.05227562438582731, 0.04891711360624684, 0.04213544215221646, 0.039894347029533817, 0.03835888737743906, 0.03553178900910903, 0.03277039538608306, 0.02252323547225943, 0.0287649723442302, 0.027104660626455807, 0.025493230542269957, 0.023965307035242356, 0.014529462617638017, 0.013513485865771085, 0.012625897956504734, 0.012101934692975796, 0.03246964539239536, 0.039625713585693556, 0.03464446683945979, 0.05132840557687343, 0.1069089531051291, 0.11206669198666858, 0.03998712397148724, 0.039059112410743224, 0.03849850151535816, 0.03070982182570936, 0.03182031386570178, -0.06391527249914852, -0.06411231738291034, -0.07209792412431677, -0.07237071517627856, -0.07387745482963977, -0.07578264232608968, -0.08407004219196204, -0.08030799412956684, -0.08898668630684797, -0.08527375912074182, -0.0934695942803149, -0.09561966843010855, -0.09684369461099507, -0.088005268392928, -0.09225885136325476, -0.046981545787558074, -0.0017202947253559808, 0.00034359767890060344, 0.002507189041275032, 0.004548494759666566, 0.02191290033170129, 0.024741988764313133, 0.012896564304458014, -0.001466657975577823, -0.012537021465531581, -0.018362648361570616, -0.015085306105483975, -0.012642507636905886, -0.012943126964808302, -0.01632419180624918, -0.05413709361258352, -0.10610164091231084, -0.10458441047287406, -0.11189572096979383, -0.114622316123758, -0.11823435891790643, -0.12105034337532936, -0.09800871675579667, -0.07241445821482476, -0.062495283006580096, -0.06925478408499347, -0.08397054036144457, -0.08303753732799375, -0.08163092074481042, -0.07442923591719043, -0.07589393196926775, -0.06912346354986883, -0.0661708932597714, -0.06859567345895988, -0.06572204238537392, -0.06568260414328914, -0.10551177970970499, -0.11455402975599398, -0.1125236095804772, -0.11156930307200971, -0.11211682086687406, -0.1088645780218211, -0.10249045027207819, -0.1023184782690595, -0.09210298283162023, -0.09885362672624004, -0.09901122241788965, -0.09932709218913374, -0.1026285024916315, -0.09847479597923908, -0.10012659283180773, -0.10646684149465795, -0.10890318041032133, -0.11049182806461443, -0.11163663701072461, -0.11200990999691511, -0.10341382208684392, -0.043503935264901664, -0.06228994738086932, -0.06176727820285696, -0.061231755167024476, -0.060410608970746404, -0.060162155426230934, 0.11977045664359415, 0.12915879191000662, 0.133283260380132, 0.1276316953131779, 0.1212497875294706, -0.07970321959412253, -0.10021549412196662, 0.09810625758498856, 0.09383979900750522, 0.08637326708277898, 0.07140588964249511, 0.057540401552669096, 0.019471622865369215, 0.06190158035918622, 0.01749603770875291, 0.018849442108352404, 0.057407007682028194, 0.06358641687826314, 0.06473268620440825, 0.06859406739287377, 0.042183853740617505, 0.07645027246459457, 0.11440355943850833, 0.11355714051331822, 0.12016827477394498, 0.11694518667912646, 0.1155827198505231, 0.1120539584992632, 0.1143948145943103, 0.08454695593017866, 0.02414692248664871, 0.00844791066268985, 0.007871118261013416, 0.01072637637102411, 0.01021572370138002, 0.07750146087870655, 0.021158141488315074, 0.05627982631097933, 0.08049500653251587, 0.08856040219863251, 0.09937214867598196, 0.07727197549633638, 0.07179787000071355, 0.07702699998071791, 0.1017331405245869, 0.1003421399649482, 0.09919527570654699, 0.0984884657717928, 0.09490095099167539, 0.0998290022118879, 0.09347621744576778, 0.09302320051761853, 0.0966702011194154, 0.09319339047339004, 0.09337380121893701, 0.09348254790100272, 0.09338178322540064, 0.09730949159127114, 0.09552278741448414, 0.13432081252516756, 0.1428786928113917, 0.1382403634167011, 0.13481427600365484, 0.13503514051493024, 0.13530139589129989, 0.14519312623189723, 0.14619596638457066, 0.1471888330915064, 0.1446843884915952, 0.149025934290315, 0.14203050458267438, 0.1358633230044167, 0.14411948484648354, 0.10667778903151395, 0.10662653232425526, 0.10856858934192659, 0.10942533920191294, 0.11027934864551125, 0.11317535597671396, 0.1435589777048232, 0.14300232616836783, 0.049551067540518384, 0.035210283845146434, 0.0361616408087761, 0.046543164489037614, 0.04300881917541005, 0.04200550617949714, 0.04886580432953788, 0.04193528490101714, 0.03189443153381302, 0.03552386646829392, 0.036972372273408965, 0.043367982820179785, -0.0035194149449595258, 0.022276423055786254, 0.007545873650745272, 0.009045185905721398, 0.01038181312432726, 0.011688556754701457, 0.029216799425241913, 0.010385606023787325, 0.01822836270141448, 0.03569160748008429, 0.03532030040316919, 0.03518718000466925, 0.024716027388213768, 0.11332825302642094, 0.11676428084664783, 0.1229143326384983, 0.11818916973386764, 0.11825253401983737, 0.12116509354415336, 0.11915935085224677, 0.12166086966769085, 0.11951947636457552, 0.12009737938074774, 0.11947062735499162, 0.12109465271063063, 0.12157194329655566, 0.12167456350432984, 0.12139313656747333, 0.12461137353874646, 0.12277677637507489, 0.12303591971843744, 0.12733699894251232, 0.12931251116821976, 0.12539653656934416, 0.06916469889239843, 0.07359581766626416, 0.0859833660381926, 0.08423076442853919, 0.15187180771503642, 0.14813441665007238, 0.15270563377444332, 0.15498862351136117, 0.155066475261052, 0.15500241259064712, 0.1551444031334203, 0.15544661016288083, 0.15557856338689935, 0.15573066737110464, 0.15599958704118488, 0.15631466967780203, 0.15673831412712536, 0.1541518894274447, 0.16166682908271468, 0.1580552255722727, 0.13566393609503638, 0.043973169334831724, 0.04587301007205999, 0.03910625566208664, 0.04261900265521995, -0.13719088787286535, -0.13744547473024935, -0.13602728577997017, -0.1413074668344666, -0.14210923008417992, -0.14180938285772018, -0.13581311110070912, -0.10522182019592347, -0.10957006250908692, -0.1103750380737418, -0.16732124914749513, -0.1309339898291269, -0.1371713538817721, -0.1199473429420404, -0.12357831393392496, -0.12026038528606485, -0.13529611622847032, -0.13272304539212998, -0.13940752607302273, -0.13055871155551588, -0.12583638773918632, -0.11171828374089371, -0.11979488174339344, -0.13849587104248764, -0.14284161483655305, -0.1483088429841794, -0.12784293155030588, -0.12560739095946655, 0.06612826120267842, 0.06402026658151008, 0.08391242250222, 0.08762185822013546, 0.06783305600978512, 0.061015085730786095, 0.07122399194529717, 0.07584621451043962, 0.07850137349975558, 0.08296518586946953, 0.12698041343018102, 0.08699976527099224, 0.08837755492717779, 0.08994804188556592, 0.09190688861386331, 0.09113139226402754, 0.08995484016142238, 0.08896357266640965, 0.09841530413804572, 0.0954915606275685, 0.09401037894743376, 0.09200897042089672, 0.09608467923187412, 0.09371685132359427, 0.09284971615547064, 0.09479828589887909, 0.09543007496921485, 0.09787360731289307, 0.10093658967018661, 0.10420700056775559, 0.10407926058474899, 0.10057559883829284, 0.10038907392703567, 0.10140987903158633, 0.10350941576306805, 0.10493018028958812, 0.10636562762487818, 0.10370447010103996, 0.10650574940486951, 0.10841316816780604, 0.11079990228444515, 0.11512917717760043, 0.11315462137788414, 0.11383787678130289, 0.11483640512803239, 0.1162380193638407, 0.11816903419728123, 0.12050084580214307, 0.12282426412894483, 0.12579113460773392, 0.12898258873432505, 0.1349440907549234, 0.1417217513822648, 0.1484030615957187, 0.15071822408355628, 0.15291970142184913, 0.15582702221753902, 0.15871931422176744, 0.16117742422318038, 0.16375043596886393, 0.1648124589010735, 0.16219277254608766, 0.3482105136342052, 0.37373644506215525, 0.37214440111201386, 0.36399290206972434, 0.36829661326677177, 0.3590361481847809, 0.33116165428836897, 0.3285725079075808, 0.33156189110565754, 0.32397539632470856, 0.30654988020774276, 0.28137540469378314, 0.3029919096111422, 0.26404896931174077, 0.26223520979794623, 0.2553516076286173, 0.2611118624243803, 0.25764291123316096, 0.24287711326152125, 0.2556077054606052, 0.2500293169097086, 0.26395009244415873, 0.25534186813166426, 0.25103980609460225, 0.24763238513542923, 0.24036627667528515, 0.24062205001919693, 0.2231285114449877, 0.20962120574668705, 0.19523368980805422, 0.17991427460933257, 0.19114310222659014, 0.18438996700018273, 0.13729921276775625, 0.09933104965150272, 0.09224768701557254, 0.07305638637134737, 0.06740707702194873, 0.07025675838419002, 0.06559699568167968, 0.059395537360849904, 0.05497683886580869, 0.046623453104012155, 0.042923825732128024, 0.046793401745635024, 0.03826736349141838, 0.029121215819421384, 0.04593054495509383, 0.04182652430502498, 0.04610592087622467, 0.04862918101486316, 0.0476516692949456, 0.051423843109382486, 0.053673583593289345, 0.06186513103017065, 0.06443159622559384, 0.06640625110254732, 0.06793632779387984, 0.092632606820992, 0.10495109049821662, 0.11703919417760464, 0.12885869641007264, 0.15139725462482467, 0.1484042112150859, 0.12364307380660816, 0.14361563270441105, 0.143071680927023, 0.14112731743835888, 0.14474555672856482, 0.14129933631256425, 0.13721140716302815, 0.12960700200343409, 0.12865937664807678, 0.1303225402002901, 0.12290194413180673, 0.06783786290641075, 0.06470397408519846, 0.07298900468023899, 0.07039191641914609, 0.03902151417383046, 0.01848891722058303, 0.015839293437384203, 0.029897367809087375, 0.02754350237710261, 0.02582246651206274, 0.008702247035997299, 0.02501826304885052, 0.010252202620811418, 0.012594269037792052, 0.030946729792348485, 0.020528205881914285, 0.020906516251114615, 0.048652718887882945, 0.02339077422245163, 0.027460589370238125, 0.02558116840575364, 0.030601730137543914, 0.033525167191515964, 0.034114216056738825, 0.04280176807999281, 0.04637151385215178, 0.044624142454325735, 0.04688804719357166, 0.05051444476025044, 0.05341155183086417, 0.03230175914137026, 0.06485169601625267, 0.06409380524120822, 0.06520660219385922, 0.06950417863441567, 0.07444887698164435, 0.07630632709629763, 0.07584341422008038, 0.055802740170813755, 0.049569402104144615, 0.03821285391017698, 0.03415588663085377, 0.025557841087997912, 0.01764458971411205, 0.009934645699682096, 0.0027600724757297634, -0.003112628969204917, -0.006225586504479436, -0.010356633713454591, -0.011609925154110967, -0.015455134904758985, -0.007127959141181084, -0.0011783085572451835, -0.0020542739559525347, -0.0063111567699692395, -0.01972092930545441, -0.00996551289810943, -0.019472095621556357, -0.026328212053334507, -0.021354402816099655, -0.02163383829033566, -0.02248742362187392, -0.029150361348717874, -0.02388357877424252, -0.030945661421853107, -0.03305285675490825, -0.03701347225736269, -0.03878138771812836, -0.012856544866388403, -0.0066821252012308485, -0.006187186427145275, -0.005613438932566661, -0.018925045634754334, -0.018566551322656583, -0.011932043392463537, -0.012220189475933008, -0.01277199189007075, -0.029937816425596564, -0.03442780297965607, -0.12563154410095395, -0.12709141389039458, -0.1266881988280656, -0.1282798478907837, -0.1433727420230695, -0.14507443185336988, 0.02065626604485383, 0.02034127720224997, 0.018721791707590092, 0.03326241686607906, 0.018311395027426597, 0.016843214228858823, 0.01579843387924649, 0.020481425760679357, 0.012988903855868244, 0.019601817098562763, 0.02309528039339051, 0.018996533066185112, 0.018434575071275962, 0.06410882844432454, 0.018223427299597503, 0.01481444491091153, 0.0572116307316578, 0.08143153261583164, 0.07602540638800756, 0.07361214445380007, 0.055184389357591165, 0.005025467860809708, 0.052699466842214784, 0.02626732099688147, 0.024095990948744553, 0.00021258405598103235, 0.04433324203885248, 0.048307124161400844, 0.04144942004182345, 0.04656628824422386, 0.01726547319617871, 0.018211304260112707, 0.04410436969377644, 0.04561983762770696, 0.062271876155011126, 0.0741631330944264, 0.07633651437685379, 0.08054252517558938, 0.08274635382982824, 0.08549406915539652, 0.08494826506015035, 0.07299230361290565, 0.08894212564362278, 0.09001976618205493, 0.08783136114406138, 0.08861460402413882, 0.08937636637600785, 0.08199859454935383, 0.06680586278075314, 0.07008434159312255, 0.07065224667220717, 0.0712455006028813, 0.08151785443678121, 0.08693606777774103, 0.0986708185021188, 0.09506284325113475, 0.08648410432234614, 0.055807952747700555, 0.04225444668782781, 0.03448638844650195, 0.16208274142484147, 0.15046197025238223, 0.14705805229570523, 0.11526439808683138, 0.11464232704566461, 0.11253136364007588, 0.10692147901768623, 0.10561290028705217, 0.11130642183435474, 0.10569467599901844, 0.10034540819263316, 0.09736732593092312, 0.08455315437822386, 0.08921707955076205, 0.08521979619806182, 0.08613378018118867, 0.08264347386027869, 0.07419942667410355, 0.05640061240327034, 0.04917811814158583, 0.045006687852225585, 0.04480196316084864, 0.038982615364276885, 0.03707488319546662, 0.03464185017893803, 0.032718556359924184, 0.031348108923195894, 0.029915023397597773, 0.029534757999750458, 0.0247563011462804, 0.03561355727077367, 0.01920000914385578, 0.06525283686187512, 0.06457020131454413, 0.06344405329907644, 0.08055204867481817, 0.07904893073255784, 0.09631355204573758, 0.0692045923795841, 0.06967662910242665, 0.06582806630438685, 0.06637384415233816, 0.06502504111489328, 0.08595931012674529, 0.086242888849568, 0.08872558361434653, 0.08534741891601418, 0.0823734440869191, 0.08210078353097579, 0.08040117806889123, 0.05711017473508091, 0.0827184272398527, 0.08642157052287014, 0.08694754560001729, 0.08813152510100752, 0.09097342798249601, 0.13405417717166213, 0.12660448308678915, 0.09060732534426898, 0.09001948427969467, 0.10542078321971686, 0.1044364082536582, 0.10350581568957416, 0.10115268409367172, 0.0999738213280943, 0.09848327001960146, 0.10068983377375001, 0.09844822754166167, 0.09550235604717948, 0.09537484066474329, 0.13675386414465596, 0.13808168642788465, 0.13898610019282465, 0.20320467874430603, 0.22533842605656088, 0.20320523335238455, 0.20699976113200572, 0.1728119865428962, 0.1743303077178974, 0.17397873350433135, 0.17337017145093692, 0.17894935042932986, 0.18210703906187764, 0.229375900359379, 0.18561708834291668, 0.19181530780896855, 0.19313585375393238, 0.21483714238038998, 0.21692034990743933, 0.25216885696539576, 0.2768016303952649, 0.27002610524775517, 0.273351950268818, 0.2620188049106034, 0.26659421800772043, 0.24569198771752848, 0.1721330576477833, 0.15600317061321484, 0.1275041947440274, 0.12780137896758217, 0.12801652492876064, 0.12116700488679119, 0.11843803952435722, 0.10890758970033895, 0.10718075763714499, 0.10586655398438108, 0.10788691315546409, 0.2310226040792539, 0.25698802111329055, 0.2562132662515817, 0.25409476547374, 0.25341566419357614, 0.24921601591172035, 0.24895446926668413, 0.24866282154005215, 0.25552496240216777, 0.1513719225700129, 0.15373320258937181, 0.11763339270733017, 0.15937328364365214, 0.12643877237482207, 0.1309651609078036, 0.14490555824746384, 0.1391216781129233, 0.14134310394033736, -0.07907908563232623, -0.08949673466864241, -0.09099176230434514, -0.0926245502368887, -0.1097575492015279, -0.14633135659914193, -0.11267534417681545, -0.12125786060851299, -0.14997281617176583, -0.15163202954805138, -0.15279100818683472, -0.15341504014720048, -0.15532357704145805, -0.16508434184094178, -0.1634978585136403, -0.051225342317987435, -0.018148068245028813, -0.0038204124340477374, -0.0036720765223760277, 0.004080664968669559, 0.014357699776925997, 0.008645683048420644, 0.03330103636793878, 0.03662115956875006, 0.01833987339716226, 0.030319447109864117, 0.02995441619818373, 0.06452324885254682, 0.07377939668324977, 0.07706045263852895, 0.046068807496956646, 0.06566013619297476, 0.00932733435796267, 0.050037745710656674, 0.08993912802641886, 0.10227285968287023, 0.10302840988052625, 0.08781621914294696, 0.08854934440664776, 0.07728874364930015, 0.07822816273699285, 0.021399673583004996, 0.021779605190933, 0.023162714819454307, 0.02735111485145343, 0.023601329677402985, 0.027298722781786147, 0.022030960350291832, 0.02994146299896891, 0.038031452004873394, 0.03722723487509644, 0.03799082009322359, 0.010364862105264614, 0.002298093856184359, 0.003862522830160319, 0.00012221432235890936, -0.0045736429580711425, -0.008816998311763457, -0.010986483845734772, -0.00706979915072971, 0.026119027237762084, 0.021432308167805225, 0.021471106265299213, 0.021995295178193427, 0.02645061082404917, 0.030035962846242572, 0.03301578913286625, 0.036168456036631616, 0.03968843932707733, 0.039299674635124966, 0.028727528972964732, 0.03523063134222259, 0.04365967378068299, 0.08539341076312994, 0.03829116731123003, 0.04185248906344848, 0.038321232568688794, 0.025708974533402124, 0.05845197896023124, 0.058171487743349924, 0.06675004559061717, 0.060163427615255324, 0.060974754081148205, 0.05679139428076535, 0.052979643642337385, 0.05293948755687275, 0.050678513540708514, 0.0484675956222991, 0.047427912093741836, 0.046937785360337644, 0.046275936741283524, 0.03437411390203739, 0.1583642911883191, 0.1545127664509256, 0.1511306358920005, 0.17058686693274017, 0.17522989261148228, 0.17476717803796632, 0.17623868500887818, 0.16640009078797968, 0.1701410752551052, 0.13958311010749042, 0.11898834184497295, 0.11001506444727602, 0.10874018359474706, 0.10663267149797523, 0.1049160181242226, 0.1036473467072396, 0.08998599481089112, 0.08169936245082995, 0.0777292168326392, 0.07369582414415904, 0.07002555837643265, 0.0722651234631963, 0.07183954456547215, 0.06075285789437074, 0.05752312633403117, 0.05343488592784429, 0.04566793410208561, 0.04214283951356118, 0.03235807546825775, 0.07544271932906804, 0.042205157005909016, 0.018484530179248143, 0.013379923152683021, 0.021046945591465527, 0.007859842918545246, 0.0009386610877914481, -0.02241324789546345, -0.000923709804792533, 0.005004804735434909, -0.0005879593601934296, 0.002069067210604597, 0.00625972711143713, 0.011605246697002553, -0.013048233929624314, -0.024339812428971874, -0.004680560398987871, 0.023025087369090202, 0.031586319891291126, 0.040259741062946164, 0.06028226124484082, 0.06002490804082458, 0.045352963264891494, 0.04632292406226399, 0.08018097214617637, 0.07018453899108834, 0.04965953013797739, 0.04818751554860329, 0.06231884667665638, 0.06359745754038018, 0.065946799110391, 0.07029331076758566, 0.07474591423624338, 0.09434472820130785, 0.09630888902344201, 0.0981443590220196, 0.09951402348263702, 0.10118672144749868, 0.11388761035142339, 0.1217135366625472, 0.12284392579861547, 0.12392395434621911, 0.1250087024998244, 0.10973800707187695, 0.11349342537201942, 0.11831074267151813, 0.11906244323662903, 0.10969108288618423, 0.1113760257274465, 0.11322991741396603, 0.10823592590879197, 0.11031542346192498, 0.08727599530894228, 0.09682372395642035, 0.0921841055586827, 0.09001555124077473, 0.098294290411924, 0.11278542505534289, 0.08287880317424769, 0.07105204976364517, 0.062444721390574734, 0.06322462068273725, 0.07197469254497793, 0.07167666138810869, 0.06811671373803882, 0.07484717174880412, 0.07378974076173372, 0.07812261786638258, 0.07592698973147162, 0.07363769807929746, 0.06815106428580907, 0.06494525419884656, 0.059719071418924186, 0.060734691415944966, 0.06191167244983352, 0.043987528009130195, 0.01011460596471278, 0.012951200650444306, 0.03177897313109598, 0.03180465909739991, 0.03182514697230107, 0.013452533729435362, 0.0383227948435359, 0.055613160801486886, 0.006859544208665899, -0.008981626595265219, 0.01934393522051754, 0.019214483170186536, 0.026455158698698397, 0.042442844481844655, 0.049292754829239435, 0.09611142226135856, 0.0924374756300845, 0.09224736468049725, 0.08982945293514047, 0.09183408420948302, 0.09054385878060636, 0.08949170200761616, 0.08618343767751474, 0.04106530945345144, 0.04423895578176146, 0.04231115985011008, 0.035521357593315706, 0.0386591200262979, 0.01564458421504214, 0.00043000542221868776, -0.0013480028295553836, -0.012443956741016948, 0.09813954528078912, 0.09666701189627167, 0.09538135288821648, 0.09415589876201991, 0.09308636155056857, 0.08515653991423136, 0.0847889271928424, 0.0919285084399446, 0.09182597663075896, 0.09190890141316815, 0.09447558395917305, 0.09483907356155738, 0.09527014269059875, 0.09568456270261584, 0.1226612565288103, 0.12895414754807727, 0.11989896106856238, 0.11297179794182416, 0.11702931746988489, 0.112544476955496, 0.11384899897470649, 0.08471678529609479, 0.06231739780695117, -0.08329640250022215, -0.07776517537940883, -0.07448800715000439, -0.07451336908582495, -0.08394939166854445, -0.07244624716464323, -0.0828841556262266, -0.08365948956401743, -0.07967220983354335, -0.07833835382175251, -0.09038671409334546, -0.08530353135478785, -0.07677842122555402, -0.07568504898324543, -0.07862014911886903, -0.08653953924295749, -0.09181047782094365, -0.09573935023692201, -0.10042180293464537, -0.1060850838556264, -0.1071472632363346, -0.11144679007886849, -0.1191492882451706, -0.1292676964710362, -0.12992218293971447, -0.12281632665184998, -0.11959352725589154, -0.11944249442650459, -0.11905663944919909, -0.11861446456525176, -0.11822080701350807, -0.1178477297713453, -0.11741234068035888, -0.11689410836697481, -0.11626166485075126, -0.11552746706411884, -0.11485820735868194, -0.11425198810483853, -0.11363217007840279, -0.11470680685076162, -0.10513742071066429, -0.10428676610220772, -0.10356484944898134, -0.08824111489560421, -0.08967681577890602, -0.09936380150569593, -0.10195512619263936, -0.09109263082856563, -0.09339530919730206, -0.0994194914990858, -0.10451924261399478, -0.12742976992319013, -0.11119506139250519, -0.12276472851169565, -0.12666308844062216, -0.1316377307570811, -0.13485541187353325, -0.128066506197572, -0.09429636023361267, -0.11675341147360703, -0.1248760723079021, -0.09684488204194916, -0.07308495304047044, -0.06699857143560527, -0.06697980175828072, -0.06675318454752403, -0.06657527497566455, -0.10548369571885972, -0.09840651670728189, -0.09827718427830116, -0.07909043592039305, -0.0958574406609084, -0.08038530042119149, -0.07386887833957831, -0.07525927943655045, -0.06397036101562671, -0.06315825166862832, -0.062345413718860085, -0.06146330956995011, -0.060541050708687386, -0.05973026263387608, -0.05889287512063153, -0.05527928269332072, -0.052431210368777376, -0.054620831810399006, -0.05381883590483273, -0.055080069791076214, -0.05553729805097744, -0.05483805618693152, -0.057164898068422954, 0.10169516052190117, 0.09341180047102564, 0.08942441710538877, 0.08348334395728045, 0.08910816568475118, 0.08231907201923946, 0.08134625909221237, 0.08382063498119786, 0.08141731190754611, 0.08186493500026491, 0.0984474158080923, 0.09570069149573655, 0.10038835906219407, 0.1034766560861777, 0.10348401777122444, 0.09805653373699287, 0.097771767566131, 0.10369813416816234, 0.10835662120636307, 0.10729347347194548, 0.10855565615171656, 0.06057988018766096, 0.06246382725777144, 0.06663158663413435, 0.061077524474459605, 0.06493591585234793, 0.06268806827318664, 0.0633387377333244, 0.06399140813241218, 0.06448881545618065, 0.06490887126499581, 0.06026801164763809, 0.06599914293750618, 0.06047383809516754, 0.05605781191006491, 0.05782914294829648, 0.05705072442231472, 0.038540066680317744, 0.03715414349181882, 0.03544862577830972, 0.01809010687615145, 0.03329621357485166, 0.032592519232538655, 0.03272758261166425, 0.03384992751896357, 0.03384994926829997, 0.05026566467722246, 0.047015694673489386, 0.15235501152591285, 0.15146197358303815, 0.17540194362750927, 0.1763342153395232, 0.17729234157519824, 0.17887099812807655, 0.17199985600903775, 0.18051743546511145, 0.17496353450542684, 0.17740391064166194, 0.18239294199835276, 0.18605901578760553, 0.16375148619837965, 0.15627119917071472, 0.14905791527435014, 0.18858197003353225, 0.1507748457747818, 0.1417919564845521, 0.1886469605064406, 0.1806338101844957, 0.1869923696475193, 0.1859145252532361, 0.1855980248605823, 0.16932780096677713, 0.1543221493665591, 0.15137707238082548, 0.1489146331532284, 0.1399914602983882, 0.1371852440116818, 0.1311236224868953, 0.11881602901778904, 0.13589338238414236, 0.14528298625794728, 0.1471652322824819, 0.13438199031788586, 0.13734070921335395, 0.15663001844690552, 0.16102999076329502, 0.16474047003454917, 0.1686728899819965, 0.17161454552524563, 0.17281066453259095, 0.22616384650849083, 0.22829275719462097, 0.22834663506300368, 0.23462619603790064, 0.23436549498844483, 0.23844068378618177, 0.2663776091412638, 0.24926176698023506, 0.25285682082397776, 0.2539530205183001, 0.25999397947676955, 0.26744190056433376, 0.27524189437805285, 0.299046061158974, 0.30094499581083023, 0.3058382485144039, 0.3113205090675324, 0.3178673147929649, 0.32279382553844904, 0.3226005839153142, 0.3234280972298272, 0.31829448594132204, 0.3068263556976114, 0.2971502378165332, 0.285726339054857, 0.27634436043032595, 0.26603268318370776, 0.2605437883288928, 0.2520019130375533, 0.24619576184337577, 0.24023454365774005, 0.2338123363926595, 0.22841004081016977, 0.22407388784348406, 0.21387735993127555, 0.19817221718967903, 0.19639483694999388, 0.1945083198995211, 0.19175785667737627, 0.20396276412891165, 0.20463482170896719, 0.20287478656507152, 0.20211178450102693, 0.1951077943550308, -0.02676446712624092, -0.031948453488903246, -0.03480613414289721, -0.03756590818334322, -0.03985349585982716, -0.04701579158337427, -0.05889850291161791, -0.06300244013249005, -0.07236291953797669, -0.08187489938358314, -0.08757168156334039, -0.0941410033789197, -0.10051378731600168, -0.10680194458510013, -0.12437774065866236, -0.125530634430008, -0.12427237201966242, -0.12796088548063944, -0.1262935041345273, -0.13128365013182144, -0.13575561818907253, -0.13890721665668662, -0.1432496399865267, -0.1423619671110995, -0.15559817747010876, -0.1538137749134292, -0.1511060912766755, -0.16171353104592032, -0.15866292545354163, -0.17361441588511423, -0.17098170221097664, -0.16844227144071497, -0.16412868949299111, -0.14671480192381375, -0.1346573052192032, -0.13458271346006728, -0.1317042277761777, -0.14023942333486694, -0.12934739355977257, -0.13302036244264154, -0.13217559646701882, -0.14993993186789925, -0.14958767961535208, -0.1523652388038308, -0.15090399295374804, -0.14374797272300838, -0.14686628383124214, -0.15309020811520435, -0.15622345227142362, -0.1560981294197971, -0.15936580409584808, -0.1602376398304902, -0.1625630897544512, -0.16496016024322066, -0.17041180006672813, -0.16863901851606547, -0.17386836219799606, -0.17793055917270217, -0.17974519330699598, -0.17814043214822425, -0.17673323553015977, -0.16124146057552724, -0.174465321179499, -0.15955666997961987, -0.16430236795972913, -0.15946216958621717, -0.15545187713985226, -0.15189762186301742, -0.14945307257285806, -0.14833821379494802, -0.16846559461500527, -0.16650858932455107, -0.16083683131095555, -0.15583926534740353, -0.1612618420049112, -0.15308634653345154, -0.14813164851196978, -0.1487241147530729, -0.1448535450291087, -0.14391008929030347, -0.1400425988198587, -0.13689776439586912, -0.11698310949038127, -0.12348882657365035, -0.0905263424633407, -0.08293915620038249, -0.07967149877691193, -0.07541854653734113, -0.07441405887243442, -0.07344689756556864, -0.07533622979577338, -0.09564590097001739, 0.03334845492187609, 0.03478710039747197, 0.02425429614076835, 0.020118518451123335, 0.016602314107879407, 0.005562091342194347, -0.002778648868317385, -0.011416043310364346, -0.0064593736552283065, -0.02228180757757045, -0.035032485144143824, -0.035312627471813254, -0.03724870222145235, 0.004658926224788917, -0.024138913518816932, -0.017667491354620132, -0.02101626253831887, -0.019839647209767677, -0.02016529892496892, 0.0017196875785448207, -0.0016229407030893817, -0.02476295568495955, -0.022864995736035648, -0.00506772570791722, -0.005592879593199956, -0.0073203206378135155, -0.00030523760839659686, -0.009509102096525668, -0.014296511864662173, 0.0025931138259221165, 0.0002513493788879606, -0.02675979111041861, -0.038493551806777895, -0.05068805769144774, -0.06622165351514567, -0.08956668809022778, -0.09043498684784951, -0.09137952790426748, -0.0928963483750562, -0.08791278158838393, -0.06722843979789384, -0.05444450383022696, -0.02864171949642852, -0.02683389734741609, 0.00424016256214603, 0.0027734416877849832, 0.006757007410927926, 0.007587738937388441, 0.008092173329857955, 0.009569163127207597, 0.008218616333297346, 0.006855183057562303, 0.0071245844085261745, 0.001970061369605619, 0.008725720370156814, 0.013007620148083598, 0.010978652358883179, 0.011786292217248667, 0.011631219448622998, 0.030298231978595547, 0.029298045244964516, 0.042594002300822664, 0.02969641534261991, 0.010605165111664372, 0.04703082841087136, 0.05743728495563025, 0.042786882958017025, 0.047041437954721974, 0.03827851627629597, 0.05184308664742075, 0.05824543315838203, 0.05738568753894502, 0.06356679979991184, 0.0673807690746756, 0.07162289014471267, 0.07743738367164534, 0.07067814800358484, 0.08732573449067743, 0.08031824775266698, 0.08945504155581814, 0.12065975565897673, 0.10838557909366751, 0.12902831772571208, 0.11752497696336302, 0.13347057725410616, 0.13302928321828358, 0.1155149452116107, 0.0817155834494355, 0.06232982086843654, 0.06492480383451643, 0.08463805161122212, 0.08625020486084371, 0.08777023335875336, 0.08903528894855768, 0.07129970289456458, 0.0580722579204007, 0.05983709694897663, 0.062095792722151606, 0.06512761759413851, 0.07163250781079616, 0.0681494927628272, 0.07100105913462201, 0.07392347940711673, 0.07737578963731295, 0.08352990512798647, 0.0770795967279749, 0.0752680518847913, 0.08859734302066744, 0.08259740795771589, 0.0776399457757166, 0.07349537047949248, 0.053644150272608326, 0.03072661055407505, 0.04479135699419695, 0.017993706567190362, 0.009143615277864697, 0.01619746693416796, 0.019816479060134062, 0.01583538941889613, 0.03467216024451533, 0.038878239103533996, 0.03799725442733855, 0.031696994270636936, 0.02184980633814479, 0.00570551242322026, 0.006155782879536609, 0.002068343007263232, 0.01236208160822487, 0.043307200387213335, 0.002647804734177625, 0.0038116215014001864, 0.01118159163675693, -0.0021726224480431156, -0.0012308109333449835, -9.12870759832013e-05, 0.00315926239424949, 0.013068956882519023, -0.0017891930575755777, -0.0006448462848641923, 0.00012255730113699959, 3.8312345453400676e-05, 0.01519879065329667, 0.023513571519389737, 0.024268387676941824, 0.005590068377104851, 0.03189049889281757, 0.029430334999671695, 0.02864659766202425, 0.014491747437762784, 0.014664197926182565, 0.01516485133841071, 0.016053409602901275, 0.019178780946685722, 0.03850127116822877, 0.035445316235901345, 0.011874395251714714, 0.013347586553658669, 0.0133004603508656, 0.01510072361112444, 0.01694593731241513, -0.05787906759817526, -0.054612407297931584, -0.05345378752319907, -0.05292661325701152, -0.05251450139332127, -0.05208409290037347, -0.05156342466131113, -0.05099264595115292, -0.05147584008357542, -0.052953098511428626, -0.05537950885501941, -0.05755597582455041, -0.057539826245648115, -0.05207133474111786, -0.051868335726817906, -0.052117376503416545, -0.05173767658831597, 0.10155144487499816, 0.16544776755852003, 0.008508638467075419, -0.011590232186622723, 0.0180322941795084, 0.024413536442389014, 0.018521463942110405, 0.019428063281155677, 0.008376734104055011, 0.04950651116985884, 0.033771039516332604, -0.02715910828397515, -0.02740529142850546, -0.011800662979485316, -0.014222657575479525, -0.016228704801650076, -0.0038848084961186913, 0.005305145142428601, -0.0023339777477821982, 0.04507215311375545, 0.07233834345144766, 0.051125639790442795, 0.001204759761620558, -0.002781262872151788, -0.016390889946654164, -0.028064861879461257, -0.02356285529198124, -0.03245136322263455, -0.04068928325316165, -0.06188562895657166, -0.06751140127633518, -0.06440424169076149, -0.07326982083308703, -0.07557094412426993, -0.07725643069894253, -0.07785063344441767, -0.07733781671580048, -0.07433812035441435, -0.07297231640101028, -0.07773125958634391, -0.06385278010480873, -0.08536663203087239, -0.06425049367836405, -0.0558097373054561, -0.055086234755004834, -0.0548410109869467, -0.054077304788135744, -0.026962950505491773, 0.024782720966154193, -0.015489084974419753, -0.02851699372519953, -0.05674609090203252, -0.05679085103637076, -0.06284206148974948, -0.05629937916944322, -0.057852564530714676, -0.06026223705542427, -0.061553279649146794, -0.06316823312583157, -0.06475529307856652, -0.06406323936740994, 0.016033162734951083, 0.018724609219727503, 0.019834529446277976, 0.018479083614340655, 0.017326814645840773, 0.043484305462147585, 0.05587234810423959, 0.04017853014349493, 0.09100974101482395, 0.07379002479656546, 0.09067517641011474, 0.10199182350938321, 0.0903296555771874, 0.3272477726162676, 0.3269058132371779, 0.32679749066717223, 0.3267250436275801, 0.3345640208995592, 0.321488244292629, 0.32155478095005086, 0.3268831449913013, 0.33478493038552753, 0.38906764514088177, 0.41824113390413414, 0.4199296760827162, 0.4190136825437919, 0.42247212719025995, 0.4193138692950896, 0.4221617391025079, 0.4002877982745714, 0.383828858205103, 0.3752566930768991, 0.3755190933833895, 0.37588802193963144, 0.3659089218333393, 0.3729873907031698, 0.3000463079570632, 0.3048628306697603, 0.29181549534798146, 0.2902561859453396, 0.2855770098850955, 0.2824607226322296, 0.28246509924721724, 0.287273024940937, 0.28157045078460113, 0.27718052824077677, 0.2781065372834285, 0.28044143704195273, 0.23380180844578774, 0.2509747075200357, 0.1871153856590489, 0.18723665940393427, 0.18751127740015477, 0.1882397556662648, 0.18947632994508185, 0.18813973544010576, 0.17883975509508632, 0.19190937936323788, 0.19679265502406107, 0.2442705995478734, 0.23310156479303232, 0.2056020128341689, 0.20680814947163004, 0.19725035098711943, 0.19149118651559544, 0.1862536334516875, 0.1894907388001815, 0.18556662565250914, 0.17792280683369344, 0.17453814192212197, 0.16041000745909567, 0.16834270751148683, 0.20302445846401518, 0.1867636505434473, 0.18451507400027872, 0.16797013162769694, 0.1738019185682118, 0.16686473016385062, 0.14898969189265576, 0.1643255219349421, 0.1611072943752264, 0.1580899001879496, 0.15534767860497184, 0.1530163563601793, 0.15122953962715788, 0.15017791571290978, 0.14908832833195257, 0.1482151359736379, 0.1557325862634423, 0.14148539547894073, 0.12953180508763504, 0.09852418979105923, 0.12225201528495902, 0.10351586728192144, 0.0799421274760364, 0.06686228410398282, 0.06430383353902785, 0.05200688873986142, 0.05870942123834447, 0.08410268742895258, 0.07083056078278974, 0.06411568376128904, 0.06366630155091102, 0.10491677905144486, 0.11547998081877894, 0.13198194018380438, 0.12296989567695094, 0.10534039519990288, 0.09665038224265057, 0.09952873292223818, 0.10226086281312025, 0.10222063541788307, 0.10523267926840224, 0.10849243718599885, 0.11140963218042033, 0.11644525958602447, 0.11341129014823847, 0.10961121186319761, 0.08604594480669381, 0.08147757272945584, 0.07840001109928352, 0.08304265434071832, 0.09370965643560875, 0.09538573642228267, 0.09698212935009268, 0.08188886385206837, 0.0716387093046679, 0.03589403163874466, 0.0847939366373015, 0.08584892534717269, 0.08581190961289331, 0.10774933223741909, 0.09926437403910085, 0.10184483680412329, 0.10453563941434552, 0.10687633132615393, 0.1025164805116637, 0.1338762148035641, 0.12751123788742952, 0.12743019985995419, 0.11003378233485231, 0.0857479788398199, 0.0862257138888027, 0.08687952069071805, 0.08322451915379903, 0.08316519783873218, 0.10246195414978973, 0.10603774460349212, 0.10274289032823825, 0.10508212512162113, 0.11993626097866028, 0.12508838229744176, 0.12615113385871465, 0.1293468726045792, 0.13477807053354587, 0.13749713994791185, 0.14520241172611406, 0.14677026701479617, 0.14791260741122347, 0.15585507898626447, 0.14711461258706035, 0.14414485180925823, 0.14752874170170294, 0.11394189632542497, 0.10151672256829893, 0.10721590718987677, 0.11276621190386607, 0.11233741286181283, 0.10832321449076293, -0.013535440624589362, -0.01262823230412452, -0.004441472476260602, -0.0030437241849997215, -0.00043570261335235116, -0.0011753214220857483, 0.01939141792974472, 0.01529043784122619, 0.014399706661404665, 0.006934139450963467, 0.014700581216933808, 0.010155742008030488, 0.006116303004027476, 0.005690493235680313, 0.003874532391865304, 0.01849719629564077, 0.007722361264719299, 0.004940383154829045, 0.0064306911845301296, 0.018621429765283345, 0.03885881577531608, 0.039452855400768136, 0.04602309460931704, 0.04737920923334907, 0.008341173121745912, 0.05137741149551277, 0.0381464982837036, 0.05714194261579669, 0.07253696385077205, 0.028321271185305558, -0.0024200041382827914, 0.008281334226857465, 0.004481262662485622, 0.012372343653377263, 0.0052190669935711365, 0.03457020461014837, 0.06674112125952762, 0.08347973341320207, 0.08195820806876557, 0.08285178230327504, 0.08413225700426906, 0.03205471569428835, -0.00019932127163163615, -0.0015361007355923773, 0.0041324059223120935, -0.00604699632104394, -0.0075528660009486215, -0.012684240591085305, -0.009920487888214702, -0.018085641165561273, -0.015277261646053197, 0.1734066209366029, 0.1756673114080219, 0.09992161933996781, 0.10160876158287485, 0.10423676380701197, 0.1061922058639115, 0.09606506456743048, 0.1003358507322255, 0.09673044199074143, 0.10611928455199787, 0.10500880493790497, 0.1075980145018822, 0.11333706555140195, 0.36601527849871324, 0.44516198251531525, 0.485384967841335, 0.49754706426101764, 0.4977585765576354, 0.4927164861091541, 0.47316965895778457, 0.4342349921675998, 0.4242891839324813, 0.4789927464856015, 0.45034879460651867, 0.45200163436092067, 0.47609421672540325, 0.4629129766623905, 0.474523860980692, 0.47303976782387097, 0.47145538303951484, 0.45120072781258025, 0.4764510059451419, 0.4764516557065672, 0.48393710201224305, 0.48591588110711387, 0.4882576756573893, 0.48483797689677527, 0.4955224678474504, 0.5007272797951422, 0.5056163212834528, 0.5116650917626531, 0.5458686084144337, 0.5506736962662268, 0.5526931656508595, 0.5544572923886679, 0.5588780033123197, 0.5608478936121175, 0.5608499326124062, 0.5499977676822554, 0.5507063719372637, 0.5590174594424083, 0.5491751525829557, 0.5440036220311564, 0.5570574509491337, 0.5450315234683797, 0.5624079834507936, 0.5584024159192693, 0.5339363719651798, 0.5366240081510947, 0.5397123051750784, 0.5386006924295952, 0.5419699800053683, 0.5513850899695149, 0.5548764185092362, 0.5483572452260915, 0.53920686984769, 0.5229321224881874, 0.5114844339943748, 0.468801049042491, 0.4421781952207913, 0.4290310027711555, 0.3838793568024457, 0.3789422316520872, 0.36968166652986645, 0.35892084830046045, 0.34642819222429244, 0.3483305101510051, 0.3479559848534669, 0.34025330649318386, 0.3455795292580851, 0.3426506654048446, 0.33970956788970513, 0.3366856339488356, 0.33424994541068004, 0.3315429124144643, 0.3274618181366785, 0.334078568682995, 0.32458993516600676, 0.3235872812420264, 0.318913581258476, 0.3132548719715078, 0.32113337625967736, 0.32045409072623654, 0.31719290021388613, 0.31648668294854926, 0.3152309958854049, 0.3139467954422229, 0.3182878558966995, 0.3323151412339886, 0.3398972518537928, 0.3672838136571716, 0.3629878049403374, 0.3624297876533196, 0.36386291415809835, 0.3562478234616274, 0.37392988622479817, 0.3763668497659147, 0.36666382039383955, 0.379936637581741, 0.3790301469893778, 0.3741621381255063, 0.37430506932707935, 0.3655648909971031, 0.37518146155651383, 0.3734935609482818, 0.37379378606946173, 0.3672834691871283, 0.36774864943166663, 0.36821143996786654, 0.37792407190887994, 0.3691383124071159, 0.36916996312893113, 0.382667453958615, 0.3784947309976879, 0.37485203075926227, 0.36791662023257504, 0.353576123423865, 0.3518893019836701, 0.3494776757515061, 0.36519400253957857, 0.36316949818356614, 0.34367313474970584, 0.33555479933924565, 0.34231965982157003, 0.3408482628398802, 0.356113434054201, 0.33886390232155233, 0.3382994635429586, 0.3377981359013016, 0.35854911342289264, 0.35858098163807195, 0.35862843869012545, 0.3583720031391463, 0.36299972877141296, 0.35893930251526, 0.23631263226146282, 0.22121636079773221, 0.19865277296773343, 0.1858250607065513, 0.1751828682093738, 0.14315898022434426, 0.26238608008368836, 0.26234243460284135, 0.1683046707994097, 0.16840169458914872, 0.2169161797732837, 0.22106827602312085, 0.21657851016361712, 0.21602869781376116, 0.2193817233533214, 0.29053201365406434, 0.2898667558265275, 0.2889068488639336, 0.26287227252189815, 0.2427385880677888, 0.1276922891874828, 0.1257610306169989, 0.1251583347556544, 0.12485717713167578, 0.12504773143290565, 0.12548146757432468, 0.12984583181976173, 0.12595249839035813, 0.12537635303143999, 0.12777285967035604, 0.1235240272971422, 0.13053442265566836, 0.12428248266410272, 0.1233216021935436, 0.12530631716867807, 0.12323436663528042, 0.12124709714320732, 0.11890401998488691, 0.11226056958574493, 0.11406225883527141, 0.11191416931242545, 0.10996120939854408, 0.10808148201011955, 0.1016858300350048, 0.0963554140366338, 0.09438174273465949, 0.1139945524784705, 0.1507114256732863, 0.10384014293252006, 0.1022741682428207, 0.14403447864634844, 0.13928382412344265, 0.12045931742929307, 0.10227173329364103, 0.10043635029240908, 0.014969345586434507, 0.013697879379722416, 0.013430802403240752, 0.012028002828597922, 0.010859791596507212, -0.006427070443603716, -0.0008916261321853663, -0.007937411269556757, -0.009001193062859777, -0.010643485455415894, -0.012448310638987395, -0.017922934823921752, -0.021297882817371563, -0.02309205082610062, -0.02431984436529512, -0.024708461508325105, -0.02946880818206722, -0.03020975370032182, -0.030908766497971904, 0.09815027477036639, 0.09999483959266513, 0.09918201843179934, 0.10026014799046741, 0.10132397192310974, 0.10247706872572684, 0.1041310826512761, 0.10229774502017848, 0.10469852580980667, 0.05265905820858407, 0.020481918537219573, 0.022779327875458333, 0.032087077662526144, 0.03307429499498729, 0.033640885598552446, 0.03731254693835332, 0.03719492380836401, 0.040690906745615395, 0.04270101938523823, 0.04020379353814899, 0.03916411374775892, 0.03845761034271481, 0.036582172656633216, 0.03599959357213736, 0.032216781543176566, 0.03179877017198424, 0.031271117677266244, 0.030941012439393376, 0.007963233059747004, 0.02772828730891506, 0.02705439091682159, 0.005287167841596992, 0.0060139025663795715, 0.0011998660345910778, -0.000798465140706067, 0.00336988052514734, 0.008160662846724358, 0.0016359932816646541, 0.0014125831979103585, -0.010072234269135132, -0.0030746474297581212, 0.028450293736537423, 0.0348124355384344, 0.033344030362846215, 0.03928654046798809, 0.04083669179682993, 0.05936230297420257, 0.09092010537168523, 0.09660564983284733, 0.09874577909856608, 0.08603722131960986, 0.09145650612705271, 0.09120454012999248, 0.09355053773952979, 0.14390120140956472, 0.14652951628041277, 0.15978196241452386, 0.1625135376973274, 0.11319202106789729, 0.15882580130184454, 0.15302509185077992, 0.17568178896959147, 0.1588290600696881, 0.19449969340439688, 0.16405929157979274, 0.1838420564835655, 0.17017052052068032, 0.16708376594651503, 0.15462868939988605, 0.15393604196740393, 0.14672671432336354, 0.13957952215462183, 0.12219563842154589, 0.23423311548259726, 0.22913262286767755, 0.22110401139748798, 0.2214956968129206, 0.19255888802234633, 0.18410528650507493, 0.1825516987810798, 0.1812814885985456, 0.18011708621899422, 0.20508030346195508, 0.20843138636555447, 0.18327277499022737, 0.20368106112676604, 0.176135058530071, 0.17534853184002855, 0.17418906927851002, 0.16356088462897478, 0.16271610940144363, 0.17204889728983053, 0.1771279138860663, 0.17497883170349138, 0.15761595328198608, 0.16161427264321854, 0.1535381585765212, 0.12235815372759185, 0.11609266744828133, 0.14102105745869709, 0.13666180632254812, 0.14496596631630493, 0.14081435510975115, 0.13878032578692978, 0.11346390920425459, 0.12398611755032496, 0.09454716845423025, 0.10039612228383801, 0.09583360157690843, 0.07365453648889092, 0.06425181066727925, 0.05327012549744997, 0.05284330564501033, 0.05404944485835608, 0.0596862128552646, 0.059268930086842114, 0.050164985576167886, 0.03915337720210518, 0.03880364787258192, 0.049357169759357555, 0.04934877451550207, 0.04973891411208098, 0.05865422078664145, 0.05974452589570031, 0.052278497127697526, 0.052602986352313336, 0.06103043366179073, 0.051044026542224175, 0.06519775692049062, 0.06394774357270064, 0.06812584589761869, 0.06526100087541606, 0.06394385205918551, 0.06150983523201367, 0.06506416255294767, 0.0616920801874454, 0.06235092677996373, 0.06869317355301496, 0.08740538122030347, 0.10015010375439201, 0.0956775600522036, 0.07323029222752475, 0.07218140872966472, 0.06812420657325702, 0.059771754223365614, 0.05084058571902503, 0.050401662360871485, 0.048069723121440616, 0.04029272086627814, 0.04560478538619864, 0.05249349178775076, 0.05404887383199994, 0.053533395671121614, 0.06403462702179027, 0.0667950940628047, 0.07940991548869827, 0.08253577361666739, 0.09231249945571565, 0.09353894703235208, 0.06340572741395611, 0.07501564604582242, 0.0778500848151919, 0.07463411681405122, 0.08443342488686106, 0.08544839029458479, 0.09086192048121708, 0.0922521163154085, 0.07208399218377237, 0.07126947059677485, 0.04253930687572058, 0.04587213168899712, 0.049570410602023635, 0.05585552851776365, 0.056305739781515624, 0.05517501353073295, 0.05348691703569078, 0.05134403104158167, 0.04815693765694137, 0.06378677611959191, 0.06626543023820161, 0.06319010669338843, 0.06061242971504427, 0.05298152092018507, 0.03237016007212823, 0.03560725591323413, 0.03461905306396676, 0.029665891081191387, 0.02435501899618636, 0.02185235336992644, 0.02173598877876043, 0.019060151819489918, 0.02353575200830338, 0.027119838139697372, 0.024784044297067265, 0.02514837830599198, 0.025653767636224067, 0.026276070524344997, 0.02599725490619678, 0.029538281207652367, 0.041815465960688386, 0.040635754562947574, 0.04151070576422983, 0.03360006167326074, 0.0273239511641232, 0.015268636461117563, 0.015701763621117026, 0.01650844650868033, 0.016886101986158086, 0.01620055586272151, 0.01626680434143593, 0.031086811502954143, 0.03033767735953999, 0.08053858372663894, 0.02380612326664211, 0.10381193872188957, 0.09002334255572772, 0.001352284159084921, -0.017483540771949857, -0.05579162598168416, -0.07234765645775376, -0.07379558779561948, 0.17778726970560016, 0.18245176410040198, 0.16896350791516176, 0.1655651958049147, 0.16010579971850591, 0.17881904641117977, 0.1754393604092624, 0.17392871946868205, 0.1634899516719124, 0.1637195702910941, 0.16463820516917702, -0.45018175404630617, 0.02099841545765261, 0.02371190767766527, 0.024727321665452526, 0.025457599134196485, 0.025275040910813087, 0.02524968091542098, 0.02397011579956205, 0.022675859006956043, 0.022763822201520956, 0.022059464423136704, 0.02023551341685691, 0.01789775880582018, -0.012640081729920887, 0.00702359165042385, 0.00614201220425484, 0.004963562472047643, 0.01097967958418857, 0.008910496653849484, 0.007134029886293676, 0.005905562117670363, -0.008491878034169507, 0.005128014165399355, 0.005579220461292227, 0.0066210432409857575, 0.012053574762702694, 0.015867788513479447, 0.020874477599782823, 0.0012915496156859288, 0.0050689308652470295, 0.020637201158942034, 0.023437718439598083, 0.04703845089648865, 0.04973729070932336, 0.05661484976170519, 0.056291871757811, 0.060925399323273, 0.06329835164664602, 0.06300413932639491, 0.05457483868875049, 0.03325236408544053, 0.034846041608036, 0.03804503108750604, 0.06603567583978531, 0.07338535969013527, 0.07701023459276743, 0.0805478674697124, 0.05920356354691555, 0.06324054515593193, 0.07136231888182744, 0.07310885584381172, 0.07630837384924787, 0.07085215044728838, 0.06603246703361819, 0.05429343669931788, 0.04667326080359934, 0.041806510578417735, 0.08253349015343006, 0.0636257311953271, 0.0518567319403001, 0.046170957885835195, 0.06606725197655972, 0.01869497894600754, 0.03883955489737541, 0.03416220434245689, 0.017482804856490907, 0.01219583765970601, 0.02540891760313489, 0.021666136829140037, 0.017931631677650387, 0.014342447436072173, 0.010127097080492645, 0.005627518240665066, 0.0017610788958262596, -0.0010788352689852232, -0.0034669376280229633, -0.005597183786137341, -0.007733036588583847, -0.019142469235039605, -0.014089167329453603, -0.017257448786791328, -0.010746980357979385, -0.014809538906589564, -0.0194980868558427, -0.029059108276350408, -0.043652026305383944, -0.035527147076082045, -0.04371975043563766, -0.041687195316373014, -0.04568876328834664, 0.1272552858357725, 0.12573198320943665, 0.1952228642787518, 0.12783586545492978, 0.1800701823836322, 0.17300367073764855, 0.16727493902510063, 0.18350757898328673, 0.18924536499651484, 0.19019377580439312, 0.16796243781522127, 0.16404010597507895, 0.16179447245400427, 0.16590632270257613, 0.1645313757692748, 0.16718491282890022, 0.17551472943590896, 0.18022750851833824, 0.15591942666410924, 0.12994310612625515, 0.06480017768592966, 0.07158096415845358, 0.07178475544064467, 0.07249866653373774, 0.07288188984133726, 0.045955771545984764, 0.0462132619397799, 0.04720505593930929, 0.07076030812032999, 0.07448792140581315, 0.0945242209835204, 0.07869917613787844, 0.07609734154799816, 0.06803002372437605, 0.06320787436533148, 0.06108245993342881, 0.05535776272278556, -0.029201949042837655, -0.034484601865552106, -0.03918578617926127, -0.04307001104395192, -0.046032183666075754, -0.04319278631315979, -0.05543698877000397, -0.047553730196078614, -0.02221626250829542, -0.020337304711559756, -0.01764113734843681, -0.0024665462557729168, 0.019868966536427835, -0.027835265875298026, -0.007758493158889268, 0.020594535140981085, 0.007555066523460746, 0.01005452827476136, 0.012010914163215758, 0.01532196789074275, 0.017507971944290934, 0.03100453816310772, 0.07565972590918582, 0.09647279169737374, 0.07355887724323154, 0.07855526240508451, 0.10254135389638519, 0.0981287148792464, 0.10880381792358376, 0.10755173291740525, 0.11109752838378417, 0.12476520986987853, 0.14496621325966902, 0.1476909785925821, 0.15277721315814946, 0.1351820252858924, 0.12973365628936978, 0.12873375913568916, 0.1302346312874422, 0.10212778144141277, 0.08638376330325903, 0.06636236262476371, 0.05624963207568914, 0.028189839041231957, 0.03123971679674778, 0.04382008330531306, 0.05613085184698208, 0.053183316528264274, 0.022278754415545915, 0.020693021172332182, 0.019535771605793673, 0.01865187857396372, 0.01765382327530121, 0.010735123264979968, 0.005687569368595186, -0.006389679149426786, 0.00974566350379319, 0.0068637250324269095, 0.010379440015601538, 0.016810143409743683, 0.019689157444091887, 0.038802803297337346, 0.043035596307723134, 0.028828867169054584, 0.029789901080247233, 0.030826670197725142, 0.027319563161067026, 0.03265754726980845, 0.02718069388249718, 0.07372958687741864, 0.07398603089739594, 0.042881836832680556, -0.0068129658581461, -0.004939110043336095, -0.006245092446935829, 0.012977487145932845, 0.013816592811723469, 0.01668766298128517, 0.01266073520271542, 0.01573895692694406, 0.010889349623879135, 0.012972985068603143, 0.010774942757350317, 0.08253868888475785, 0.053743459406295394, 0.05405691084268155, 0.09537880446283557, 0.11950225353574803, 0.11550249884089973, 0.12105055135539973, 0.12159506230450497, 0.12222970250370625, 0.12296428634106002, 0.11780085154300173, 0.12211486921262102, 0.1202973379671202, 0.11552306265255924, 0.1465026698761982, 0.1388008873325732, 0.13837371405341686, 0.13405438490932914, 0.10546215480822364, 0.11684191888694495, 0.12353112618849602, 0.12320459796359146, 0.11905882526616177, 0.10318635230927836, 0.10289148568085724, 0.1308706821376468, 0.13263937819590405, 0.13286721336949986, 0.1371145854763317, 0.13786468746521624, 0.13877022652411136, 0.11800957524716202, 0.11994400368508645, 0.11238296020580694, 0.11126629256675896, 0.11244657196189192, 0.32019017397122945, 0.32341719098152316, 0.34144185000478733, 0.34396406617527797, 0.3306745584918662, 0.34660406315844694, 0.33242592652520125, 0.3481098893396788, 0.34877631891271493, 0.349787983858638, 0.3612048336550797, 0.36277873254061765, 0.364320015577537, 0.3546214159246709, 0.3556105689480728, 0.35715909859201833, 0.3733432009882921, 0.3754664418942861, 0.3774435163849155, 0.3797917636914381, 0.36673710126697395, 0.3680174534369443, 0.3835452655289511, 0.38129574918337844, 0.38241885433074857, 0.3792604817762061, 0.37833993977151387, 0.37418599257765084, 0.3608610247990721, 0.3470123287180564, 0.3818356289602394, 0.3768638431071007, 0.3403495513217311, 0.34449736172072165, 0.3550702006501692, 0.3541787062252628, 0.3685321483593934, 0.3526578512525695, 0.3397836117278998, 0.33847513902528076, 0.3218033927115299, 0.32366955194330677, 0.3067699799880455, 0.30391643917298305, 0.298386515616926, 0.3132948468178979, 0.31344751585768027, 0.3170636496321992, 0.3132039471443143, 0.30976848721250416, 0.29774783892786766, 0.29335035147316335, 0.28121272887511456, 0.2994130147881443, 0.29067117526065994, 0.2882582603803135, 0.27778600227913985, 0.2984156981433743, 0.32301072758062166, 0.3373726513579539, 0.2644575791798267, 0.336011121149155, 0.2741053568777849, 0.3032696513073675, 0.29706847442329104, 0.33205195807407273, 0.30019928206429947, 0.2774522428359626, 0.27343529722442583, 0.2748527558518111, 0.2564368877964097, 0.2645927537310808, 0.26658851633902325, 0.2778204106477172, 0.280189337495168, 0.282148648215282, 0.28932225225275787, 0.2913594038478945, 0.2879415295955805, 0.3043943046776529, 0.31593797485471964, 0.32555341617558753, 0.326035762850574, 0.3350448217975754, 0.3481492068700132, 0.341999624685187, 0.34190437346636565, 0.3415157563233357, 0.35454256479529894, 0.34040178793625936, 0.339917810827726, 0.39121731617038935, 0.3985754002330117, 0.3985835344848302, 0.3985324017949229, 0.421688126945057, 0.41729187553669445, 0.41420052694532866, 0.4190679911605559, 0.4182846453109639, 0.4137524007209107, 0.4123635575599608, 0.41579574000225683, 0.4220515433803738, 0.4180142484390744, 0.4213344788539861, 0.42227968578387237, 0.4257901670957144, 0.419187927517207, 0.40920095388487004, 0.36536617712204894, 0.3882371906949098, 0.3892620357386992, 0.3889025330182489, 0.36289635429029343, 0.38448187646548926, 0.35377549663067953, 0.3360376814591055, 0.32826471322204615, 0.3039323764827689, 0.2667651658939155, 0.2846272488918355, 0.24931334481785528, 0.25351690805141824, 0.24253377850401048, 0.24023167105736365, 0.2220119016313465, 0.2147255240349925, 0.20473677604007934, 0.22169539643013048, 0.2094511177494389, 0.21133252451768314, 0.1897129203504649, 0.22728730188319385, 0.22499728162824983, 0.22017754454320215, 0.21931480220698135, 0.21082642716521938, 0.2070849152182478, 0.20199507312428525, 0.20151691110179296, 0.1990905116328704, 0.19637107247978539, 0.19660525095132014, 0.19596787486276723, 0.1903750585252122, 0.18872031367685502, 0.188770957006693, 0.19261825860107518, 0.19270745946828247, 0.1930356025814157, 0.19332706543868816, 0.19000529829136031, 0.1945206690210412, 0.20166475543419735, 0.19897879228159934, 0.19926018848587235, 0.2327165304513626, 0.23593976756008583, 0.23292851353696137, 0.23427062158834333, 0.23102113778149744, 0.2019877687003031, 0.20327131666339265, 0.20052618446514936, 0.2005048113461223, 0.20291982943343378, 0.2428811295009639, 0.2447157621500896, 0.2396184948538817, 0.26105906415727076, 0.26439645315294596, 0.26211972410528034, 0.26091432468617126, 0.2615726118513877, 0.26189894976959865, 0.2580175671261426, 0.2602327124290349, 0.2607737549750647, 0.2607379120686559, 0.4395033009446649, 0.4415488449324267, 0.44626966603546747, 0.4460314212285133, 0.4482194969063548, 0.4503300682078056, 0.45298825871979737, 0.4598287485181719, 0.4567151350067129, 0.4557424605595229, 0.45702201625677225, 0.4585023848397325, 0.459896562065096, 0.4600363994235643, 0.4596197800099024, 0.46182744316316504, 0.46052283321937465, 0.4530587605698589, 0.4521261442032119, 0.45083503834571875, 0.44587105357400514, 0.440156335968126, 0.43776515223349943, 0.43643997060318096, 0.4353584196020284, 0.42562660574172695, 0.4246648960939646, 0.4283115922447995, 0.42267273300119856, 0.4265523754196863, 0.4079094257401777, 0.40416755900119067, 0.40874417614638214, 0.40895504140024164, 0.40563436687289733, 0.43170204800850187, 0.4347408381054751, 0.4379628421026388, 0.4408538835200234, 0.4391692598817095, 0.44123310396604176, 0.44226764377653727, 0.4465230429885495, 0.4664153833532142, 0.47789656215735804, 0.4797331304974245, 0.46222471668661197, 0.47830540998207927, 0.4798391405619292, 0.46567267064668294, 0.47089477830571613, 0.47174051212680923, 0.460968958337061, 0.47856708129465614, 0.4710915840275342, 0.46068253424999517, 0.4630408173070256, 0.46391466391344116, 0.4659736192183319, 0.46830006961176796, 0.410788903743764, 0.40419037085128967, 0.38125479489367453, 0.3819547761247583, 0.37961048472919035, 0.3530559261008024, 0.3377979073391816, 0.32621933273426923, 0.3144083384577444, 0.30818972817512846, 0.021761134644441488, 0.037873632111476735, 0.03215054999238157, 0.016660334027408446, -0.0012790074716384735, -0.0022220174012353537, 0.001856944323798168, -0.0022505266045051413, -0.005786604743729954, -0.014790743516519163, -0.018119578346064043, -0.021280588159344138, -0.01710813014426149, -0.026558510219096644, -0.038697475719858265, -0.04258186477151668, -0.043953023139678964, -0.04434494956621812, -0.04597173290954642, -0.05034374101664273, -0.05571120055671383, -0.06385669678215329, -0.07570594941738061, -0.08419757001983287, -0.09100487851177884, -0.0959676517822115, -0.10171355459585758, -0.10520529600180711, -0.10910986373001441, -0.1219133419252278, -0.1286976579775823, -0.1379023033876688, -0.13457407371415644, -0.15822196892102625, -0.1685318286102828, -0.16439495860892994, -0.17098135365359354, -0.17501823711056802, -0.17806996262537295, -0.18087873717777492, -0.1828258791441658, -0.18506141731139486, -0.18767798210324574, -0.19004041677377725, -0.18193662912765188, -0.18266364419593387, -0.19638516627699895, -0.19643584223084154, -0.1963483555251197, -0.20667601938401003, -0.2053807997089949, -0.20474387039213615, -0.2050846748120017, -0.2055840830747202, -0.20164793663620353, -0.1943544980153162, -0.19222960450863305, -0.21420837687368682, -0.20487375782357944, -0.22198484352322878, -0.21947519703465274, -0.22742083471285074, -0.22676921890201882, -0.23632669342255694, -0.23578263686034118, -0.23621626066642976, -0.2432401549882013, -0.24441907776847552, -0.24527336995344717, -0.24597071892686165, -0.24484267867941278, -0.24387212366803565, -0.24584402493276022, -0.2456051302215983, -0.2451115290317021, -0.24265468281297378, -0.2438781314053804, -0.24092818423149337, -0.2345266444477424, -0.23964029984298088, -0.21704420237045047, -0.1846284891007269, -0.17758355551743432, -0.1811064015619832, -0.1788151742188683, -0.17672410601876348, -0.16966051150482844, -0.07094076421140696, -0.06945350108880372, -0.06962152913313355, -0.06666733851747333, -0.06786110661358277, -0.06483629157194204, -0.06170847600369575, -0.05896935693289118, -0.05472750449782496, -0.04961525772590747, -0.043238232668224935, -0.03627912247718368, -0.025065315474190997, -0.02461458182514248, -0.05224527360265882, -0.05005791021558484, -0.05145655566697277, -0.05466148460638455, -0.05813061251096223, -0.06250226175400773, -0.06277005475557271, -0.06266434653302162, -0.07403946912106231, -0.06863269068483306, -0.07444805007505466, -0.05795266048935606, -0.05373892597374991, -0.0781079037116594, -0.08034144601358643, -0.08065139580681006, -0.059898674586997186, -0.0833463808181486, -0.10953430334888678, -0.1410929040522526, -0.15194257657264518, -0.10788879205454155, -0.10741957187076448, -0.08196840820588072, -0.07628185454823527, -0.07485168102804653, -0.07577980133547262, -0.07676109193185181, -0.0778639029093482, -0.07922257308040877, -0.06776241359343001, -0.06907700873424936, -0.0692642213807379, -0.06623205568701478, -0.061058256546032724, -0.08444698428523308, -0.09094099082655928, -0.0915331382597434, -0.09410417402024983, -0.09358948529895107, -0.08304690518550317, -0.09123948655821101, -0.04512740054699274, -0.048405012207007825, -0.049721369044076646, -0.07341335474978716, -0.05111919889534908, -0.04859484523577254, -0.047896534162862575, 0.09719010820873528, 0.12771493872546238, 0.1313153364689452, 0.13146471091143064, 0.13169112694082552, 0.16044398724353426, 0.14229918457255114, 0.15956128998647892, 0.15601743932754597, 0.14445559865390922, 0.1575392295217051, 0.15463867812190732, 0.15536620429959502, 0.1674538847440054, 0.1566137951722596, 0.2513242690167282, 0.26925657716221263, 0.2694961026041305, 0.29816420974333063, 0.2983389276000715, 0.2983200709254013, 0.29819930773496733, 0.29810847706877197, 0.2979570908126683, 0.303005794733127, 0.3026738454861215, 0.3020961885483226, 0.30144262642644193, 0.30088931971031196, 0.3002223436851984, 0.30133254236932, 0.30072298459233715, 0.300242704870994, 0.29980103022178417, 0.29408568739092644, 0.2940024689924757, 0.29407413665373666, 0.29853593762450964, 0.303241890896485, 0.29935452283642505, 0.3050468335320822, 0.3001671106688245, 0.3042500966751473, 0.3586068846450515, 0.29677789453526776, 0.2970477874881525, 0.2973157230007601, 0.2975094769641965, 0.29769696168141185, 0.2979279124474489, 0.2981734608482799, 0.3061629881612792, 0.3264200128432197, 0.32862062602742415, 0.32899235098066854, 0.33454814239545694, 0.33473529382801875, 0.3350335060241867, 0.331806595041908, 0.31746725851848345, 0.3099995259890185, 0.22084523084666272, 0.21399097097473488, 0.2088579927500819, 0.27171428505149997, 0.20022196904609668, 0.232291594153609, 0.26034816473890815, 0.22321804141185897, 0.14790530794938533, 0.14660348217879432, 0.1457034511393458, 0.14509040259386868, 0.1448050839241329, 0.14483339068547463, 0.14507049944129685, 0.1108031786339089, 0.11124851804630434, 0.13880685984720606, 0.11982959440772395, 0.12088955951214644, 0.12146855947146881, 0.12215714346230878, 0.12317632824129668, 0.12010614808151654, 0.12122241102358447, 0.12526522887838099, 0.12367461608016124, 0.1270881443937235, 0.10305217014464241, 0.11519468001217698, 0.11621668133023037, 0.1171808022267543, 0.14243320146784239, 0.14208310029808416, 0.14336891524385978, 0.1439233656397058, 0.14073128028394277, 0.14119725437926017, 0.1454454657619088, 0.14592103675191853, 0.1512790592031708, 0.14300386646151303, 0.14370639721432793, 0.1536243207883656, 0.14767206705910685, 0.2199502917371044, 0.21143690878516064, 0.3004295446969302, 0.30335713587415714, 0.3632370072847918, 0.37727406697899335, 0.3798606627076295, 0.3838292119570078, 0.33509717292637975, 0.20101296778334798, 0.20624014411233701, 0.21326055314348397, 0.21535556341081366, 0.21806283526374454, 0.22752356198974433, 0.23119329761739565, 0.2332226846994328, 0.22837688106511206, 0.23318967175586208, 0.23194279626952927, 0.2330115314742004, 0.23276508032220386, 0.22974664662589214, 0.22991603861387883, 0.22999917545231804, 0.2300579883766462, 0.22894536976875585, 0.228254529284263, 0.22744538872168502, 0.2265360815902563, 0.22575817307476756, 0.22724240416938263, 0.22839583135154654, 0.15119914027067738, 0.14377736726290613, 0.1516381895522335, 0.15684609719697895, 0.15596712853589767, 0.13789228724888045, 0.14390874568370546, 0.21096851255186283, 0.20993437684453675, 0.21023382725331613, 0.21590247244807975, 0.28984671665730855, 0.2212490100930373, 0.2313951143161282, 0.17028657419068977, 0.17307086272094105, 0.17372463044201755, 0.1663072493358554, 0.16977755734763889, 0.24573879168112056, 0.24625765599035865, 0.24627153002798996, 0.22439281906209488, 0.20132722109133583, 0.19354756011607305, 0.2123808481580993, 0.2279196330313454, 0.23228641969354105, 0.22984179971803836, 0.221064782868834, 0.21803194121536976, 0.22112401320355998, 0.22033487995692294, 0.2915690791626722, 0.43559494885765965, 0.37450346106044374, 0.43666074048774883, 0.4482252588953831, 0.4472107175997194, 0.45154768524637656, 0.4274924056759541, 0.43932767069792733, 0.43852696072187647, 0.43851476206281575, 0.4384603560977783, 0.47844505516489266, 0.47808458981918245, 0.47751229409280943, 0.4767668763672549, 0.48038392536828206, 0.4750073224274274, 0.4702800510969584, 0.46302947276219253, 0.4611149004270803, 0.4598243408127513, 0.46235697610308674, 0.4613103463802125, 0.46043726548724695, 0.4599859261855817, 0.45260989349977, 0.41490811689345125, 0.36124474016568014, 0.3590270917462913, 0.3435914379805498, 0.30702433314098954, 0.31800264250543187, 0.3330881609164175, 0.3026330224978266, 0.29719569278577795, 0.2987041067887065, 0.2771645483790158, 0.30087805364386205, 0.2878056406835994, 0.28672540551729986, 0.4913560711173176, 0.46938367832194294, 0.459897381634097, 0.404100395584526, 0.40401312637216824, 0.38279170905370874, 0.37626077644698896, 0.3618475914252748, 0.3617360608281482, 0.36192276800658674, 0.3620645845546686, 0.36190699973768725, 0.3649424314887053, 0.36741473456502116, 0.3596451231240618, 0.3904786197412956, 0.4069965088469808, 0.4055152920399004, 0.3998515998462786, 0.4018090746190831, 0.39626914702432026, 0.39455886620613667, 0.39268351879924557, 0.39377344516653456, 0.3949781135121475, 0.38980565935134465, 0.3880477909850891, 0.38599997134044184, 0.3871380975912988, 0.3857948126641203, 0.38112726088511045, 0.3804787935452845, 0.37972861543372255, 0.43794154621986076, 0.4379458960871434, 0.45698613485448913, 0.4581382582666568, 0.4639749470866419, 0.45710119197274224, 0.45912925234525825, 0.46327089025017065, 0.4609442717478186, 0.4665325858359353, 0.46903283517664873, 0.46847132735175534, 0.46706753663823164, 0.44980160912110484, 0.47129445492211597, 0.4802608648519223, 0.4816152553220141, 0.4834131859659426, 0.4331657199962428, 0.4878936503931395, 0.4886773235199179, 0.4959532171026091, 0.4935786420100913, 0.49472166978035675, 0.5014544447193264, 0.5067955839880173, 0.49536387559509854, 0.4787345075071916, 0.4877842761363678, 0.48943677733261604, 0.4710996339711899, 0.4633238438407692, 0.4545266939977193, 0.42815035752670527, 0.4135804094431225, 0.41407672118985317, 0.39740712228872094, 0.38080789632318396, 0.37235000350417435, 0.3659897562211169, 0.35576614373704696, 0.35394264015619914, 0.3445501187524821, 0.3469105000371382, 0.3484424910668987, 0.34354104973816557, 0.3393215642900005, 0.33129433008892606, 0.3188705780438718, 0.34318614549689985, 0.32624655833095567, 0.3249526922525364, 0.2521149425850009, 0.270656126911767, 0.28441937922945354, 0.27012728558714844, 0.265375783623823, 0.31021385193896994, 0.31014915707648594, 0.278111855596119, 0.23874038546429613, 0.28896235331650444, 0.308295190059029, 0.2810718811321793, 0.2701182030237551, 0.23003961160469644, 0.2181763504620472, 0.22936843788007905, 0.2256943630796891, 0.2126537292872684, 0.16498474697322046, 0.15266912389521123, 0.10332617956125792, 0.09243808279526883, 0.13252506235235006, 0.13288041864598504, 0.0984922428841422, 0.09841001951783233, 0.08564785425573508, 0.08232588207879254, 0.08313583824148603, 0.0771973889847427, 0.0779223512531503, 0.10236319368149367, 0.10461228168530814, 0.1050708503210736, 0.10009594870284975, 0.10271993001841749, 0.09868006979297822, 0.10192784196128206, 0.10476191622937549, 0.10352435723813148, 0.10134205057177356, 0.09826140931420736, 0.09118058855889649, 0.09865548469922361, 0.07461713383409185, -0.23426394475273543, -0.25832025220862964, -0.2679095770329426, -0.2379339404067417, -0.24548207625146373, -0.2592031101758304, -0.2556992118260048, -0.2581075101932951, -0.2671935531961505, -0.2727104028733616, -0.2947822270846761, -0.2962667975159482, -0.31259718865948877, -0.3020811449541408, -0.2925009992626446, -0.3043567127750383, -0.31366791538178873, -0.31182450363921876, -0.3051772548178755, -0.2990961123458664, -0.29386651691906196, -0.29695468101104316, -0.2891826812777458, -0.301211438487858, -0.2990917962035401, -0.2886737498362262, -0.26910463773477566, -0.27305748599800844, -0.27112840636400193, -0.2695938601840365, -0.278488950938431, -0.2772310780669771, -0.2956029106263505, -0.2835210950799931, -0.2845203166663708, -0.2771154695118268, -0.27721889811697453, -0.26825943613763736, -0.24761631397907424, -0.21465063310397225, -0.20611699835720612, -0.20267407840300627, -0.19447052955743552, -0.19640435005527335, -0.19760711104364198, -0.20930210202146113, -0.216554852891254, -0.22499299049259686, -0.25562742524843146, -0.26017276105907144, -0.26393559200257216, -0.26343000113281917, -0.2654239367965029, -0.2670250794445653, -0.26211978902428923, -0.28834981276633814, -0.28680808122788726, -0.2871476318679691, -0.28949622028867467, -0.29754990170695744, -0.2901912638324294, -0.2903304813348099, -0.29018676171979185, -0.2899950195699736, -0.2875658823945162, -0.2646690790821366, -0.24733531135363052, -0.27666750115234373, -0.2768430079596752, -0.2976180000854033, -0.2777289862179476, -0.2748830345702976, -0.27495426364705067, -0.26697044243236995, -0.27368634258217395, -0.26530633545539145, -0.26314535347624096, -0.26213888118438655, -0.2752137033051049, -0.2610074589548387, -0.2609285741116682, -0.25169037879345996, -0.25172622169986886, -0.24646547235951843, -0.24585551221981194, -0.2447115623724901, -0.24375835420551145, -0.2433677578728679, -0.24625815287863698, -0.24639521719671256, -0.14651376039704211, -0.15852517307003447, -0.08654996294689618, -0.10397888230800778, -0.10033845053590816, -0.09817111509218815, -0.09776567483744261, -0.09714141450904451, -0.10075227884182623, -0.09965529627004317, -0.08672093943716624, -0.07986530593674901, -0.08495121768256556, -0.08381171557454019, -0.07653116528861946, -0.07213369683584717, -0.07068949739934194, -0.07533246830252319, -0.048020770017343346, -0.046026671233636525, -0.01475250790393598, -0.010864963694821081, -0.009586398400350096, -0.007991318379812817, -0.007982139873907876, -0.006290237244993405, -0.008179935865854457, -0.007566609093706295, -0.006133958554836422, -0.005967336315495203, -0.0012406042837251885, 0.0069294837241841295, 0.014871357715620093, 0.01397895844991387, 0.010410546056411202, 0.014468956930638294, -0.025356143427538655, -0.027163399443564454, -0.029353517317177218, -0.03582097764312712, -0.035952004185279024, -0.04015593355451115, -0.03987282474817979, -0.040195654088285286, -0.041055481479374094, -0.044344714376994984, -0.04198494480832369, -0.04217551793130971, -0.027578009978099415, -0.02798949654836779, -0.027502668162369293, -0.029805007218354752, -0.029853122187834723, -0.03044231466002594, -0.02819943745542971, -0.03055277082140273, -0.029596365501971367, -0.029900444099265983, -0.01932195725755241, -0.023879402635828245, -0.026587530803475673, -0.025702767798189183, -0.01819387484133156, -0.023942936746091645, -0.030170750481311848, -0.03588749438170491, -0.037396608163081185, -0.060455316737583795, -0.06854939811785472, -0.08961929104358718, -0.10010422828359893, -0.012448985253741787, -0.014451751148009256, -0.03060878046703408, -0.03068260805234284, -0.03163322804828829, -0.03181084641573641, -0.03227552098820309, -0.04721248430860643, -0.04738748188101673, -0.04513659303848665, -0.031090665813442678, -0.041792989424616775, -0.044290194769581154, -0.04057096955038762, -0.041105152590400526, -0.04044513876456941, -0.02493850634654471, -0.020634568144749024, -0.020008643992115313, -0.03851488515790334, -0.02251142177352511, -0.01995340942149494, -0.015937264669268023, -0.01499557277592016, -0.006204594918883408, -0.005296277382261502, -0.004310031973271317, -0.006014541353033767, -0.00694323037940818, -0.006058347752771434, 0.0019463375939443028, -0.014081144706305726, 0.008393928974877202, 0.0052047340472158865, 0.005208192191705582, 0.004907311871766212, 0.00474448546470925, 0.0026365745343516767, 0.0036291490002380855, 0.0049779123485624716, 0.009670976017178465, 0.014952109297962882, 0.01654848884135085, 0.017888726449801273, 0.016243531233311653, 0.006911256938339744, 0.008076901748733711, 0.008952671403413354, 0.018003858321296876, 0.019052176336410154, 0.01995105466102877, 0.020588288468597324, 0.01133444097291697, 0.021193115764910286, 0.0038487712900511645, 0.0116346572176549, -0.006361905031555093, -0.010418331152636323, -0.015498751877544528, -0.01665011824858327, -0.056420973921414784, -0.05798881833542872, -0.06298902368517395, -0.06307210615027214, -0.04684946758150813, -0.0619190650803296, -0.06079584235060946, -0.05956236135994292, -0.05491004550897339, -0.05598327404377287, -0.05391607574038148, -0.05160973260845942, -0.030282103685990935, -0.02481992632284996, -0.027294451716259105, -0.026333424662839944, -0.025648971839098963, -0.023822887886003147, -0.018629059272861584, -0.004074533226408744, 0.00403149196871419, 0.005544598944331985, 0.006068871931883171, 0.007791555513177964, 0.008704239025063176, 0.03900645027356266, 0.02792392117268208, 0.010989498625474603, 0.012939675251624552, 0.03473680777276365, 0.03605739485576481, 0.03756378108240932, 0.03895745137309273, 0.032244078803759485, 0.032341429258937224, 0.03416609117445203, 0.03498774848013579, 0.035473128420867805, 0.037288543695038846, 0.03767419749098252, 0.03807863727625304, 0.0497599444838589, 0.048875181478572415, 0.05344329025693753, 0.050558679123870826, 0.04645556658059288, 0.05027423812364187, 0.054390479489679996, 0.051988841640263767, 0.04982928477979398, 0.04808002455086763, 0.044970453432758295, 0.04413330516221428, 0.04362817138668504, 0.04308620510994013, 0.04218282091532541, 0.03089689794106519, -0.013462160741486456, -0.046103480883448004, -0.04651655168373584, -0.04173782225275111, -0.041069984024558866, -0.04227757686434918, -0.03647283249338223, -0.03530791628575811, -0.03415609601381072, -0.03466129503734921, -0.03534269087250463, -0.03588823491508949, -0.036281876154830896, -0.03659341908694679, -0.03686316523181075, -0.0368551506013425, -0.036559756551513355, -0.0358225356071195, -0.03716023503444237, -0.0395265576747923, -0.03721750434481681, -0.03285253082895197, -0.028554145497958996, -0.028180780077088755, -0.03198032262810996, -0.029808618772058475, -0.027413680981797348, -0.026999187565769855, -0.031403880436753434, -0.03811920939046466, -0.03158322002748208, -0.03150479199802457, 0.0953684751005015, 0.09283834068306705, 0.07511864539653273, 0.07225608473518105, 0.09502614204309609, 0.06653610713934448, 0.12139728852247675, 0.08572562628777354, 0.07838741089093831, 0.06848174626889829, 0.05469875435340998, 0.054829808141954775, 0.05571447191757323, 0.052993498000223835, 0.05323643682758376, 0.05197572349930096, 0.053337511431229716, 0.05139676431998437, 0.05178671849696369, 0.05071326368629092, 0.06083714181820522, 0.06221558690769209, 0.0649371260324744, 0.06481491321910446, 0.062072822793410073, 0.0625225419784257, 0.06308144555090234, 0.06361371706094107, 0.06595945437505696, 0.06838142502340663, 0.06892065632109756, 0.0657998407358395, 0.2809151213888122, 0.28523398885140594, 0.29070440692115107, 0.32693884476898494, 0.34638741632296344, 0.3572116535729245, 0.34727887858868817, 0.31273929143022244, 0.31677139801836524, 0.310095227546196, 0.3068895196659878, 0.28907798113271577, 0.30727860381360905, 0.3049651187433423, 0.3014797069936559, 0.24122359655855044, 0.25562389746549885, 0.2513909024455885, 0.23375334907258433, 0.23397520196598418, 0.20958410049718718, 0.1590205813212855, 0.1750593925777262, 0.1755062625996717, 0.17627025153985604, 0.16113774328775196, 0.1621359100517636, 0.16310985892967922, 0.16425824564162936, 0.1655228716820395, 0.16659139211201354, 0.15138957698841385, 0.1439279233984763, 0.1362969189403912, 0.12802860387239337, 0.12153879476929101, 0.10125663862288264, 0.06663570529680728, 0.09509523433647046, 0.12799551575462398, 0.10849170612899284, 0.10163103150102543, 0.1197697943831576, 0.10762394111120743, 0.10863108270117164, 0.11116406700452297, 0.08754851499368299, 0.08570119704409432, 0.08361667539424988, 0.08130553653364872, 0.12854492373115628, 0.14081717826542484, 0.08747738494339642, 0.08454251861313929, 0.07950754707450661, 0.07739480566066612, 0.07507592947363599, 0.07442340040020433, 0.07172564533552322, 0.1425509416736726, 0.14082960131792296, 0.1434363937414037, 0.13946576988686407, 0.11661931719192302, 0.14079245892269632, 0.1156844513679774, 0.11388000679779316, 0.11712053540700881, 0.11919445323072779, 0.1666953868423978, 0.16624026022861643, 0.16651832026134594, 0.1673257937640026, 0.17197183241029745, 0.17110058097623598, 0.11745385060189856, 0.08711259517784706, 0.0774511368445947, 0.07930670563568805, 0.07994499428607263, 0.08096041239376983, 0.08213758838855396, 0.08378565119383655, 0.08581175412607532, 0.08813120123318628, 0.0982087437156884, 0.0997545451772476, 0.10057717576573585, 0.10103614657472822, 0.09711671046020773, 0.10175455978045882, 0.1024022876428467, 0.11942898517836609, 0.12004835190607124, 0.10423949215100325, 0.09724783609081751, 0.08977832460730638, 0.09857024327950038, 0.09901368646353666, 0.09365475375828322, 0.09205034870975881, 0.08977779317195457, 0.08742809817522702, 0.08994818787048732, 0.0797846009962401, 0.09342220816731707, 0.09005155885234808, 0.08871134299323406, 0.07352767507308587, 0.07782432120301834, 0.07995620764694082, 0.07313993702066006, 0.07041439717871117, 0.06774986673515498, 0.0695079485651731, 0.09085489828636409, 0.08774900675331428, 0.08871012028557522, 0.08781875189665374, 0.05891832888549975, 0.05919309912707514, 0.06383198931169556, 0.06044185902657191, 0.06374850585279285, 0.09240931908536569, 0.09247909095657904, 0.09189595301578943, 0.09770028940532662, 0.09720729316075878, 0.09042140921889665, 0.09420608334122285, 0.08896169163086064, 0.0859054179341241, 0.079785448485385, 0.08785771894882487, 0.07772628864453034, 0.08256035217175543, 0.07376366021944061, 0.07415625725682991, 0.07344120523116329, 0.06904544286508661, 0.08089605946031765, 0.08335501417582368, 0.04814323864482052, 0.04500920276236192, 0.0434663700852231, 0.039671310434710436, 0.0388788628774627, 0.03656260204813626, 0.032307892478329214, 0.03098774038205629, 0.04887061840378201, 0.05049796409564733, 0.07785268266513559, 0.034085064092700845, 0.028308699376856705, 0.019372142556687094, 0.019168702298328177, 0.015596735248168375, 0.004042687291307107, 0.00474051475012266, 0.001576718792777515, 0.002782839118236319, 0.00829835819792954, 0.008901679201895746, 0.010336504674406916, 0.011136140776972378, 0.005090471457223161, 0.011853410144914575, 0.012801561591177152, 0.016127871768515517, 0.01720848754820231, 0.01837279477440687, 0.01579226446800336, 0.01103185364600362, 0.01608501929879258, 0.017307549498575103, 0.022304955886234518, 0.023015909069575402, 0.02316195586358963, 0.022271929518891162, 0.02076206883575467, 0.019145897396230738, 0.017760616912068705, 0.0163204411027999, 0.013221247546900156, -0.03104274881239162, 0.129202182552442, 0.12660539491950595, 0.12420461616887807, 0.11720706715184323, 0.11242563322410368, 0.11063809240512967, 0.10588225744634838, 0.10411872278690981, 0.0899959835531261, 0.08467423351980938, 0.07984032202355626, 0.07801224136202503, 0.07579281673441104, 0.05255719250414953, 0.05225056993691074, 0.03495638167818893, 0.02787500265142165, 0.023885763834527216, 0.018527329231792445, 0.018691942140382275, 0.01562051036745351, 0.009877609984286028, 0.007811484195046515, 0.008631309116584024, 0.0060892976516235915, 0.004721603544951859, 0.0037520391973237866, 0.0025825094117130276, 0.0016027684136438946, -0.009191219188105892, 0.0005517607872330813, 0.001213363536835719, 0.002315162065730423, 0.0034532865741857175, 0.0069832853234740415, 0.03187405983814205, 0.033766074373226616, 0.03710568139417199, 0.038517710843455136, 0.018283590109043152, 0.01325824328977466, 0.011941784918416168, 0.034125611610901996, 0.03660740979715256, 0.03636458661210102, 0.036501262160788236, 0.03678300850201814, 0.037441432959920716, 0.044078057187282714, 0.04481346206208607, 0.0476583364977988, 0.04926226306092212, 0.055160090466285644, 0.0577667212487298, 0.06703970288778958, 0.0704419801289009, 0.08355282392110962, 0.08522153491349432, 0.1386547413602875, 0.16008734461574628, 0.17321700849976301, 0.18026850608479572, 0.28825062038570903, 0.28257801139220345, 0.27974680239929134, 0.27274618694082997, 0.2402228109492395, 0.28462195713658467, 0.28759870784315555, 0.2601995352091228, 0.2726997689503476, 0.26765725624775527, 0.2604842217893542, 0.2440552849953895, 0.24325880213974008, 0.24169509713678627, 0.2233608634546836, 0.21316671175793964, 0.1949942201329771, 0.19105682332146046, 0.18288455165670697, 0.15822335007860952, 0.17559153827277968, 0.16955212272690418, 0.17064272241288828, 0.1649789559682064, 0.15668305241486058, 0.1482514112565419, 0.1392650159258502, 0.13220341489682905, 0.11082211766439833, 0.10334690336320718, 0.08592223827302253, 0.08614549856468695, 0.0791256609946459, 0.0651195743512703, 0.0589351179181897, 0.06058456919580929, 0.05601542510346427, 0.05177615319649734, 0.04875836752116511, 0.046899429988597724, 0.04540062884302731, 0.04305566347932624, 0.0009836259871219277, 0.0392760529227828, 0.03839349288545152, 0.03699995852812071, 0.029582050374994617, 0.04018663467542469, 0.04081434227364428, 0.0715070289935541, 0.0416980286867783, 0.05937668771387264, 0.04247080435887354, 0.07118655538295598, 0.05935954122356035, 0.05298484918297139, 0.03696309004951687, 0.03742208804517977, 0.03532966337299859, 0.035779048161966864, 0.036535598829097876, 0.04798532971853792, 0.05736826364401362, 0.058299113493159554, 0.05909373637368179, 0.06004719465802916, 0.06025510743947057, 0.05653110957115684, 0.05802568848401363, 0.04145021706010979, 0.03736328838004868, 0.039329198145843985, 0.03414750574275935, 0.028834512595748596, 0.01698224621933339, 0.013274723838331282, 0.00864338227067557, 0.009236722853137064, 0.007271670308209965, 0.005604018189396154, 0.004216193032873766, 0.0026492620909892017, 0.0052884469247615196, 0.0033383361739502404, 0.0015766616738224215, -0.005571598225583896, -0.006590293644502476, -0.03665382257715283, -0.03688860917348649, -0.04837979238744616, -0.05950632357231472, -0.05623267165930915, -0.05754644032534481, -0.0559623841581573, -0.058791168516118375, -0.06730948734584219, -0.07233955498217443, -0.06908510720475944, -0.06440446440724068, -0.04945600443079193, -0.04668262449724725, -0.044980564928227856, -0.03472399037341961, -0.03999526903295386, -0.037526480107362065, -0.0352025852609546, -0.03277906291787008, -0.011274566797018326, -0.007634989342970883, 0.0013010789050382499, -0.0021477457383118903, -0.016544787294744095, -0.014438823839923343, 0.0013229058282634432, -0.007401216423425144, -0.047974489592013114, -0.05225655256079456, -0.018941343489817686, -0.05726835022923468, 0.03282096671668683, 0.03350831554861888, 0.03777791177027043, 0.03670645862758232, 0.033052843841809315, 0.03265887636202172, 0.03380192810622523, 0.03300123266650093, 0.03302687513413202, 0.02707643510544272, 0.024796066163562613, 0.002569459194684154, 0.008094262200014496, 0.016017852310975828, 0.0065169893877980445, 0.00742117455050148, 0.012822574720430108, 0.008089973230381742, 0.005176591137669384, 0.005693203125490681, 0.0014202036407805763, -0.0001639135306983619, 0.00896220477095333, 0.00833993450683701, 0.008476781331548472, -0.0012266078571807337, -0.0005580115065044189, -0.0017141545949693748, 0.012083534218842507, 0.003268693144275331, 0.0021990218704950604, -0.034935217975826494, -0.05606402546917813, -0.07304286675980629, -0.04283772781626566, -0.030812622753808555, -0.06212215392516693, -0.06616271691996695, -0.07125054985501394, -0.07469730526499391, -0.07343581416853193]","[-0.2140164716345302, -0.2170644484599529, -0.2365203308932567, -0.2508731432299692, -0.2673093784534133, -0.2849768314059759, -0.3172651037259619, -0.3007846451053286, -0.2725356647445269, -0.2419585671149151, -0.2330021686920722, -0.2540887662367969, -0.2444656940264014, -0.2759705740218344, -0.286592149687687, -0.2748526873761388, -0.2491435090573484, -0.2359587552107986, -0.262553183995096, -0.2584557574489566, -0.2651394552749078, -0.2659165367733381, -0.2820856392775546, -0.2884158629491091, -0.2668118374461489, -0.2317375449684383, -0.2233149474789075, -0.2249119616106007, -0.2145268465816659, -0.1972061380077792, -0.2018974281684223, -0.2318318961038627, -0.2371800224836856, -0.2201610400849212, -0.2157627924889513, -0.2225600043123468, -0.2249815393876713, -0.2388714133416384, -0.2414389652091545, -0.2485178898234671, -0.2439822565479734, -0.2446040718778162, -0.2483788841982791, -0.2445873300111796, -0.2492418676635614, -0.2420272215717271, -0.2364121855394121, -0.23081995352013, -0.2222838363308452, -0.224564351052033, -0.1872360223516765, -0.2049233865543566, -0.2211266787737089, -0.2272527208049891, -0.2167461470231867, -0.2271853541636359, -0.2216116299514831, -0.2311645879006852, -0.2320795987083497, -0.2452640432292835, -0.2882449429853707, -0.2751621696000029, -0.2638054204586266, -0.2678794445338885, -0.2718727411378999, -0.2675412070027961, -0.2790743400687417, -0.2846865265430834, -0.2728932683895351, -0.2787439072078252, -0.2585014993218968, -0.2507030765553076, -0.2867497170449805, -0.2851237109936945, -0.2401757333815105, -0.2584014394829887, -0.2781118891480956, -0.2603267036513785, -0.2635718477298571, -0.2677997813746811, -0.2671696431030916, -0.255712082215515, -0.2344493764826237, -0.2216270791309218, -0.2242417024927338, -0.2283758833116922, -0.2251712818853125, -0.2192979676865016, -0.2190171224559618, -0.2257284544417384, -0.2270320429793289, -0.2167965546166136, -0.2035379692206655, -0.2004471756738046, -0.1820154592004819, -0.1653755188544658, -0.1630908383514456, -0.1606780547784833, -0.1685631009452558, -0.1734509576853515, -0.1920709178871723, -0.2022267698633364, -0.2091079355075124, -0.2085112281437707, -0.1977205796983719, -0.1920517165405533, -0.176562592946696, -0.182693262202321, -0.2007995153945473, -0.2160875487356354, -0.2075326339936094, -0.2077551868513183, -0.2180955209314583, -0.2196265818544074, -0.2242370991211811, -0.2170122736895874, -0.12711017776782, -0.1236272865132901, -0.1069230474664601, -0.1120553893061427, -0.1125888602726707, -0.1112329789035754, -0.1043713210451482, 0.2585637578059318, 0.3273298062885998, 0.3243041665639456, 0.3243041665639456, 0.3178474761575285, 0.2784320778777552, 0.2831821886169866, 0.2935830058073814, 0.3685931818707343, 0.3394815264375988, 0.3252374404065983, 0.306283456545172, 0.3741426697889755, 0.3741426697889755, 0.475889923214754, 0.3410819641624978, 0.395794735506113, 0.4361176599544658, 0.438841215183946, 0.438841215183946, 0.493453416963905, 0.4001880749348804, 0.4262991419101099, 0.3617468788545346, 0.3998940565327355, 0.4469437434672905, 0.511182453140404, 0.46927052304929, 0.5494528476727374, 0.5280909439071912, 0.5382246042684253, 0.5382246042684253, 0.5873754936610308, 0.5296858171172694, 0.5641971529125548, 0.5711998340883232, 0.5696764930965673, 0.561167363534474, 0.5465437153108393, 0.5534538520405754, 0.522373946548322, 0.5305744321406027, 0.5255644223032675, 0.504324685582772, 0.5122367993866277, 0.5130378744783559, 0.4257743927666991, 0.4038766227749218, 0.4557836542151186, 0.4925203132778771, 0.499331251628461, -0.1545485314338589, -0.1737866543441173, -0.1254907969543162, -0.067382997246048, -0.0680891208605947, -0.0737175758965675, 0.0106383982050555, 0.0657266737003302, 0.1120764576232632, 0.1227027388218438, 0.1305664752820584, 0.1507703949184345, 0.1530071691251793, 0.2043004635127298, 0.2011416161207244, 0.1429329034269944, 0.0962054350118363, -0.0071856596608744, -0.031441525834819, 0.0, 0.017348638334613, 0.0130040844232066, 0.0287601521752626, 0.0635537844750316, 0.0594234204708008, 0.093896085767127, 0.07262263953753, 0.0735439033223702, 0.1080095238294031, 0.1064294628467313, 0.0894593586282697, 0.1423451285092982, 0.1328347712100744, 0.1407170522853972, 0.206189038200598, 0.2267733193647883, 0.2608838792970566, 0.2289146478061317, 0.2063927408893944, 0.1935847490726654, 0.1875986138947983, 0.1724998184954548, 0.1481083653712956, 0.1446963764881305, 0.1541506798272583, 0.1139442593492176, 0.1171405685607221, 0.0722536396969563, 0.0660211010977939, 0.0842297340277529, 0.1123482396704265, 0.1104374266671152, 0.0, 0.0030441423812282, 0.0185763855729352, -0.0674412807955326, -0.0850906739708411, -0.0752706277898658, -0.0663750689448725, -0.0062696130135953, 0.0484747565024109, -0.0165293019512104, 0.0288944659997149, 0.0, 0.0519597389307111, 0.1475667107409059, 0.2142808640563644, 0.235431382107903, 0.2217036662562223, 0.1636927369604613, 0.2036863792916515, 0.2041949281846808, 0.2078456141344465, 0.2278462808411158, 0.1933713929805396, 0.1621866483848988, 0.2265276492984503, 0.235314086934465, 0.2965395262858418, 0.3420292097490769, 0.368268258399564, 0.3677247801253175, 0.4161603972249125, 0.4185216734105922, 0.4311545942234752, 0.4361989345607832, 0.463758112908005, 0.4079495814358263, 0.4267825297689185, 0.4155917769260935, 0.4301898548909262, 0.4145738243064046, 0.4271082189876528, 0.4398853319946438, 0.4353180712578456, 0.4291816347254804, 0.4497379317861524, 0.451617002995296, 0.4538089433257548, 0.4487839828270065, 0.4292608457833855, 0.462191089508942, 0.4269441397852886, 0.3917406256825986, 0.4105029021381215, 0.4454962761736017, 0.4396240269194833, 0.4004399719054913, 0.3485145296633314, 0.3595078070230365, 0.3329696060700109, 0.2631357702277598, 0.2277232125732345, 0.2712811869123642, 0.2806149052286885, 0.2554913851797289, 0.2318016140573242, 0.2251349226991351, 0.1711838123834986, 0.0809367622704171, 0.0284919557943062, 0.0231224174208542, 0.0403512955235674, -0.013908430046132, -0.0382560311555367, 0.0027662534928901, 0.0251761548924744, -0.0359651486935152, -0.097638469563916, -0.0761236954728006, -0.1065125895179715, -0.1317338009127161, -0.1423162221802555, -0.1177830356563835, -0.1491255436245852, -0.1298372620843806, -0.1029479692524425, -0.0444517625708339, 0.0246926125903714, -0.0217737995495606, -0.040567184989, -0.0252379325898626, -0.0670107102829604, -0.0815498669641077, -0.0596723314863982, 0.0128619136424078, 0.0519597389307111, 0.0571584138399486, 0.1043891702681944, 0.1367834280109, 0.1551089932690699, 0.1642010156807597, 0.1343671636719186, 0.14981227822866, 0.1584703409717747, 0.1449071209436969, 0.1852412668972893, 0.1929036661244916, 0.1939495947890737, 0.1273034297910704, 0.06983109450334, 0.081493034251183, 0.0984400728132525, 0.1069266866905711, 0.1295928290455942, 0.1331357447459687, 0.1428829549809159, 0.1424491655465773, 0.1087708429438705, 0.0671785377567115, 0.0495006437730306, 0.0647284727004937, 0.041672696400568, 0.0357180826020792, 0.0244660521544064, 0.028259337314403, 0.0538957682051322, 0.07720874983197, 0.069220376891186, 0.0552986401962256, 0.0392207131532813, -0.0130720815673527, -0.0598184952109102, -0.0569548929274725, -0.0794641713542468, -0.1355454919962238, -0.1494169431770593, -0.1273394223766014, -0.1609893760475993, -0.1433944862796942, -0.1256882151634966, -0.1109967759720243, -0.1066583743734262, -0.1516190329054788, -0.1192375813673777, -0.1236139559671767, -0.0941389909138619, -0.052116001139014, -0.0040404095370048, 0.0371176629565025, 0.0283994745216979, 0.1251631429540061, 0.0909717782057265, 0.0933319397922191, 0.0454623740767574, -0.0354304369795005, 0.034432196421484, 0.0060060240602119, 0.0121582044798095, 0.0279087881170764, -0.0155041865359651, 0.006116227017436, 0.066585604759296, 0.0348688256508238, 0.0594854532861799, 0.1010322252315681, 0.1154493123101634, 0.1015602001494962, 0.1297234760283014, 0.1512309697239235, 0.1024150054280695, 0.0875558910243195, 0.1177830356563834, 0.1497226283115261, 0.1521918153419253, 0.1575578381488727, 0.1551286750152351, 